function [Y,Xf,Af] = myNeuralNetworkFunction(X,~,~)
%MYNEURALNETWORKFUNCTION neural network simulation function.
%
% Generated by Neural Network Toolbox function genFunction, 12-Oct-2018 11:05:06.
%
% [Y] = myNeuralNetworkFunction(X,~,~) takes these arguments:
%
%   X = 1xTS cell, 1 inputs over TS timesteps
%   Each X{1,ts} = 48xQ matrix, input #1 at timestep ts.
%
% and returns:
%   Y = 1xTS cell of 1 outputs over TS timesteps.
%   Each Y{1,ts} = 10xQ matrix, output #1 at timestep ts.
%
% where Q is number of samples (or series) and TS is the number of timesteps.

%#ok<*RPMT0>

% ===== NEURAL NETWORK CONSTANTS =====

% Input 1
x1_step1.xoffset = [0;0;0;0.015625;0;0;0;0;0;0;0;0;0;0;0;0.421875;1;0.046875;0.046875;0;0.03125;0;0;0;0;0;0;1;0.59375;1;0.46875;0.625;0.671875;0;0;0;0;0;0;0;0;0;0;0;0;0;0;0];
x1_step1.gain = [0.00784313725490196;0.00784313725490196;0.00784313725490196;0.00784361786874196;0.00784313725490196;0.00784313725490196;0.00784313725490196;0.00784313725490196;0.00784313725490196;0.00784313725490196;0.00784313725490196;0.00784313725490196;0.00784313725490196;0.00784313725490196;0.00784313725490196;0.00785613453630393;0.0078740157480315;0.0078445792731507;0.0078445792731507;0.00784313725490196;0.00784409854148793;0.00784313725490196;0.00784313725490196;0.00784313725490196;0.00784313725490196;0.00784313725490196;0.00784313725490196;0.0078740157480315;0.00786144208328215;0.0078740157480315;0.00785758133824432;0.00786240786240786;0.00786385697610125;0.00784313725490196;0.00784313725490196;0.00784313725490196;0.00784313725490196;0.00784313725490196;0.00784313725490196;0.00784313725490196;0.00784313725490196;0.00784313725490196;0.00784313725490196;0.00784313725490196;0.00784313725490196;0.00784313725490196;0.00784313725490196;0.00784313725490196];
x1_step1.ymin = -1;

% Layer 1
b1 = [1.6351156158261546114;1.771911310536127715;1.8510328172878012243;1.7375415946420584845;-3.1571394200749121062;1.4142850381900440304;1.4318597251827365202;-1.2272770002303605708;1.7084824043223549861;-1.5250541603950646952;1.1953440608687846414;1.4948626641125966064;-0.70467016743261123857;-1.5055468672025920096;1.9610451113611209184;-1.2315998300822923461;0.62572765521066131544;2.1297001320733577323;-0.90669615983586293595;0.93588185966662806869;0.27832995045151442959;0.94180135771236672682;-0.79931403287718705286;1.2245195366840979645;-0.98026808894793227012;0.44448480455551048207;1.115603160294111218;0.69923494326931112663;-0.68984177399802393271;-1.0397158652013440694;-1.0003694596961658636;-1.0880617851969889287;1.2377311549221257092;0.48863910869586646424;-1.3460365773431344216;0.79265616025582585902;0.89645346101838818687;1.2569010248213476899;-0.044511934662488004955;-1.1608185353423847719;-0.71239790587791307352;1.1427388165684335686;-0.17463252882083751816;1.0806929682067585308;-1.4775194491958640874;0.77202669464742745831;1.8458628822821816495;-0.32732042574820957581;0.30333649715494770405;-0.62770873898745616071;-0.57997150425633614557;0.40820928492003766275;0.32459210533837551393;1.6242544634700741835;-1.1520348650858243111;0.31803097033868366061;-0.85214666547378470352;-0.46498923628245292239;0.043775893745504709798;0.81974093652342605587;0.33849304987015516044;-0.47484906136614268846;-0.33372118543314333028;-0.57835488639047016868;-1.1802792044957377549;0.9535743958149243138;0.56708348340461689485;0.35299524017529948505;-1.1457625080401656614;-0.80888509015614795672;0.39402120706677729034;-1.2291897074903141984;1.2065572593734186224;-1.9441336826908586222;0.35388724982627239868;1.0778702854145429946;-1.0612545868759406531;-0.86612448991119250774;0.84797467716146546213;1.2774286715792353419;-1.3473807248312492657;-1.1974244418632971065;-1.552253855045908848;-0.48368361078534766184;-2.5317089018595870797;1.2394104980877866939;0.88626052651607023503;-2.5020584043163451859;-0.74092593522367578007;1.0118264626668393991;0.3449596393162567276;-2.3268059893061026067;-1.9828826154431289375;-2.2176920064528959919;2.1380726263447749069;-2.0828644383412977525;-1.5925120141245074912;1.7374944035975128376;2.484987377750389026;-1.1888714750938151887];
IW1_1 = [-0.37120274721105900317 0.3564296359125727065 -0.024261413463851296685 -0.34025336291467667138 0.15032646559317561219 0.16994376164988894695 -0.40844741552774116444 0.14332394960015132357 -0.60803185248134961061 -1.0705890927787773403 0.99310578727329823501 0.77141276360961541503 0.32837769325540683285 0.1685043517268588753 -0.44390177331191471577 0.16727126608354719872 0.10372128510141041813 -0.36775908974285448361 1.1786021249944103051 -0.51448964358845994393 -0.040474237745892586993 -0.9332464457822751136 0.69092802792151220004 -0.37079051592778078383 -0.63450655191139126998 0.40735844961121031593 -0.44715736691000790293 0.1884608923564596028 -0.21527000467165757769 0.11899005291605518897 1.3567260950229056427 0.16756641301435135083 0.51290244057339329231 -0.51296367472925996633 0.80624040816577868807 0.2735129706717715492 -0.63623497879108270592 0.58684275832168786291 0.71887793673602451427 -0.85219284962910168968 0.17682001127595828316 0.19545391591613789362 -0.00049438588853685950381 0.61149301269164768602 -0.13306958910864685741 -1.3427566249167521839 0.57674596498971675285 -0.52661382167862424986;-0.14822079324247980359 -1.3766060501347554546 -0.27522515396117108732 -0.34525172195604142411 -0.21990164773605669346 0.15043795288369282703 -0.35077992290257425934 -0.61505793995417568087 -0.2190719856857971104 0.3319363571454977957 0.16755530277200020306 0.33588790719961614251 0.95698790656333188043 0.81488447949533060477 0.65810226198382915097 0.096123460328115362117 1.0464633324734045061 -0.096115786985337584025 0.92108540569882602078 0.95338144844759231678 -0.2026893089228448408 0.17884614692761552357 -0.055770331504542490497 0.11621445783394625251 -0.053591555892025938279 0.21684544495854335411 0.40621908822481711532 0.089248732194265170681 1.1374314400874956377 -0.36310345404941074543 0.30614685772099303751 -0.24842542159634053989 -0.96070309824426769474 -0.10256454900509179295 -0.56384847980279606539 0.03432815077158551248 -0.31284747669871265652 -1.811408718385340233 -1.162878744886314486 0.44541522563980656679 -0.73086775853483432197 -0.16522439195363902709 0.73125781935429357006 -0.083410058615022875106 -0.0425323167425138704 0.2247132786560570028 -0.49977067715823025873 0.2539063711827759251;-0.61774606396880837877 8.8162297632269227138e-05 -0.046675972425997941384 0.30518482719022493876 0.76713367587307845774 -0.0079019476930414691423 0.031938563559808549885 -0.68665847385459188867 -0.34771362138949429843 0.7801903680350997794 -0.0067834587121709567781 0.63365625921735346804 -0.094199973386157043187 0.18583931173718237773 0.24400977366224513299 0.17829569387665786251 -0.39507771367223815107 -0.76834704716362700605 0.60082473813535619556 -0.45288715080767633081 0.59663266384684898735 -0.40118676302557376712 -0.81570552349726543895 0.5425465854109730035 0.10719565037392046747 0.40174628262624800801 0.094419131422747284987 0.31557200960119557998 -0.67102439987112405539 -0.92920262485411642128 0.62296377357864296531 -0.57662826263065547483 -0.01952224402197278233 0.19678688647733058592 -0.57667046208202665802 0.74234256083252347924 -0.67512709789262947968 0.43664380464944785309 -0.21617911873757644781 0.010313559480156232404 0.40304593157867013575 0.13716899415004046858 -0.14878697149078512485 -0.52866617377733360339 0.50388609451965449271 0.18554093967022836087 -0.27751238177001508189 0.41398860852533275745;-0.70978966405714438714 0.24459710095803016694 0.35046040576955694856 0.17111400122665748613 0.47936270997243940473 0.069002686495058487837 -0.31370607232644359685 0.45759667581573859607 -0.15319422655240338971 -0.49058047755798261935 -0.31427890047074846791 -0.24681400627498198408 -0.76703748948900996041 0.50524791056137474676 0.30344557075755329567 -0.39126694869592604231 -0.18310199183742564832 0.085315609487344831741 -0.22693543263305926416 0.5224757329739652123 0.50424992485772746065 -0.42630911541643201623 -0.072188918075232227922 -0.1353634197129804928 -0.11934918720519183122 0.24762660169719341585 0.24025789400305572197 0.0043904609547683430548 -0.47645391349527166369 -0.32784515828120985859 -0.70956224708261506073 0.25574391877700380915 0.27539930733439821342 -0.79802232180363497083 -0.16402064316995160209 -0.2733691755066593454 -0.75328443481743001531 -0.4044052739641553762 -0.10895461480316125102 0.50997788609453220676 -0.51163679062501210559 -0.94667479812548216422 0.31474277917551257699 -0.25855743409660225662 0.38500631288278885922 0.33888749609586543698 -0.091454831396513863728 -0.14272541943352023974;-0.27392121677132558188 -0.28622522423842289285 -0.13766546069489141169 0.19889065110339082532 0.46070447056643976103 0.51813560423721738424 -0.071469046687199819234 -0.067915820702057511093 0.046367706015246326623 0.2085330051650347849 0.4841658245349484968 0.51264373710527000316 -0.27898902242588724532 -0.72013560091938222385 -0.20137659522756626296 -0.21021416224428596253 -0.66849676253680834215 -0.64658310262757856535 0.075811962006692837357 0.52675466896515876769 0.23558401160764766424 -0.2667329693320273365 0.095320711278094161223 0.25280733429486274 0.41255474082331022867 0.82777448610157178255 1.2395885495092833217 0.34404589860941137136 0.059387617803712253184 -0.16486823583633269941 0.21391580538503493503 0.67409948908864347761 0.33910724982326534427 0.87292604161644460348 0.55443201736186986661 0.025078356686440702455 0.47276954593739684007 0.45909638143335101956 0.37459638839967740465 -0.19948631914977757451 -0.50599988172933252351 0.3862728303271861785 -0.48769736646400863034 -0.61843803084537496417 -0.12489592561079942978 -0.60160291387361497506 -0.40987189180004263145 -0.73420960450117622731;-0.40906759344551368862 -0.10248325601292140874 -0.36752857397229427017 0.44078827176395624088 1.0053755839244808978 0.55733783897405597685 0.52604469617476745658 -0.039661724288070077105 -1.0748746288490163003 -0.39846960987219665062 0.38670478871560726164 0.18354096775604111791 -1.0194412815284261686 -0.37401461260616908344 0.17800477930269725801 0.12788995683127613034 0.36494415873050006782 0.51638108410863081676 0.98169628841712142098 -0.416979742696587663 -0.31427394235438438352 0.51358183607146390415 -1.4862440862676209452 0.1315374033808127674 -0.53921205325950616327 -0.36790180126639976388 0.27366426651826308847 -0.49761092370213533265 0.14192891737189572421 0.46071526111155014505 0.4254765199352378291 -0.57151754504622165332 -0.28814497313647235988 0.83435708125841900884 -1.0164858021867775317 0.15822059854609241136 -0.70667750343534885271 0.43353655361862519779 0.44413055598645706512 -0.12712456368452557109 0.15820946562747420505 0.3608150081686833377 0.79561036982077726343 0.26954888948046612507 -0.74309958464940617517 0.48229918651111730599 -0.089622986905117704715 -0.022330246678043733782;0.21010781733099292978 -0.90267313354791023361 -0.98774965065074915582 0.29298971792200101394 -0.1497797403293610885 -1.9715553380262695882 0.61678374629530174911 0.05992977861862600758 -1.9724632704988938059 0.79068475743542454559 -0.098810179121242971978 -0.74579261615799918861 0.18869047121982904236 -0.32168995550499490665 0.19541192123390060953 0.28628842777414154064 0.31028061389714606255 -0.09315489503735170651 0.36496972968228102996 0.31359974994696149242 -0.31167232950223239252 -0.32040385760761097567 0.093026917936915920482 -0.85107295518634895615 -0.31356456912057856234 0.66226267634827062913 0.30067305469340460666 0.075139685122945942819 0.0042777897799076321228 -0.081196200585453126575 -1.0276794489911402763 -0.54724308069237848073 0.33866292447921159114 -0.25765122758719954943 0.1296683630021062128 0.85420813448772092702 0.084746291087496025685 0.12242317089759065241 0.95229403136203549796 0.21921706577186242382 0.34125689012031829028 0.71190946629851370453 -0.57087106549293353819 0.30210168066985432223 1.4699667479649383139 -0.50286278752992841223 0.12806206857366289609 1.4137397285303170413;-0.49193866905690253333 0.33728247790688170582 0.071921394857593287653 -0.36223745190572986807 0.029199350300237469219 0.068333784653177770396 -0.20419704224895385281 0.69437740514210999354 0.34272866225487552683 -0.86147684052876349892 0.53726893405014042315 -0.24165056174542801082 0.21625040172927967319 0.59581111718933588151 -0.20101861997687561767 0.67647049129410286028 -0.21685560429612957267 -0.19442999841046101905 0.53187597277380982419 0.029704940166282146896 -0.64974200075217913852 0.50053173654018090488 0.68052465343720514035 -0.045233369873914838766 0.11289021841193101758 0.61470830396402120765 0.31771273735024668783 0.9863223866286449093 0.57806211851317901296 0.6127695172241427457 0.19970018099387498722 0.015289957960153432309 -0.088422229490435891308 -0.29600361185530427166 0.093687987621710724917 -1.1364558577284868957 -1.1906753494183481834 0.02409902657513406099 -0.097790869712481340303 -0.66779441418296547894 -0.31447619987603681047 -0.24979851078101450446 0.23932740170467142748 0.4860089713282132462 -0.0029078899157862735103 0.19437511900102380502 0.74622875419458389867 -0.73464267012656314648;-0.56083074882081440649 -0.14322940449621132664 0.43519675110001171392 0.031762829544070975141 0.10905683914115316124 -0.66887320693276408612 0.11185204982684367192 -0.31783285058548010893 -0.44119868301386044873 -0.10623552313010596604 -0.046307484162314151155 0.6343939032039620507 0.17828882477594137912 0.016319267357874991942 -0.44072970476609907298 0.073351131147903189667 1.0037082409024433716 0.45959790635930747316 0.40828734245586006946 -1.2917264268181953835 0.3843191284158996579 0.0065127364923582616724 -0.497114918840665998 0.072986535207799352332 0.23722482929163080101 -0.7533284728036010458 -0.99943191308440904042 -0.2109596174004038649 0.28163245555029137179 1.2843070759230492683 -0.14808551527675961612 -0.92099631006083759743 1.270699625327035065 -0.38562960911748561665 -0.40119447473731933984 0.042919548514782017434 0.675344951739607402 -0.025118054416018366359 0.3061919087917966964 -0.17575899428160909888 0.1248631660873018856 -0.58806945718244119092 0.13156520316488762301 0.0065618986596948968362 -0.8225678800227076426 0.48869102392223584541 0.1946903134402323543 0.32061900454482833434;0.91874348591940180331 0.86420531982432469142 1.2612308721926632771 0.053272975133427928618 -0.51257649469049959556 -0.74365833375350365309 0.56467345948609748429 -0.41548230742793562653 -0.24657188908035879149 0.56005617755288272797 -0.58522594035828312542 -0.62987627795719358659 0.75633236803069570087 -0.56469142241786551839 -0.11407379327055472418 -0.090239727563677402111 -0.69384190293658853932 -0.2607340725950337279 0.35592710059907273212 0.00047627315171729268537 0.026725285935527798992 -0.099543393253892151207 -0.0086657817781465099061 -0.12718624477634590808 -0.21685988763526536927 -0.28650478631926884487 -0.21409668546937091205 -0.977396426344734226 -0.065272359130931767446 1.5955406130933593722 -0.52495347983319029517 -0.29978767191218980148 -0.35425080666360309056 -0.54249935051966646782 0.22338860991193729144 0.56273127382915832939 0.23679652462317377082 0.23254913420863868034 -0.83554996099656486663 0.088766859035316461601 -0.01119687769164243174 0.41668040384241705754 0.023378736525493385573 0.79344100128271533023 1.2187295967380873396 0.22219744681582589974 -0.037601089834498981068 -0.28604512324399711254;0.37441159721841471564 -0.87684578928754064453 0.38056422746224055631 0.55868206509690221395 -0.47412636147185838187 0.12741780140949732214 -0.64190267732064409945 -1.0030977239856273542 2.1105371043903926598 0.036340744324663692977 -0.53395563531318424033 1.3703066937607535358 0.078113227772483584399 -0.1598197941749467943 0.2108439985604146083 -0.082421502737058949251 0.30746591679714507794 -0.35508355934504187701 -0.16799311130480265586 0.74372107009539711875 -0.28608516934996336412 0.21176797964481824943 0.28180393097717709727 -0.9532120746781533871 -0.052769716589532632278 -0.46077669174277124942 0.16489772425967161307 -0.0014796922204333116946 0.70571162132471976225 -0.51524519455439476978 0.35620156886686044073 0.8190683685244886103 -1.3610046864823468482 0.62948123549967671675 -0.12470735961954151905 -0.89424791553400506672 0.30571346130366400251 -0.57067991958695796217 0.30804677639085187302 0.13501788409825465909 -0.6843294928039765912 0.15584736968769086207 -0.026169108920445278976 -1.3389419344501052311 1.4971395992032936473 0.45335214781166116582 -0.55868748800029555124 0.65128605760049596007;-0.96208070809727441741 0.21572856899613351844 -0.98204759409394770664 -0.10495902462141275258 0.48711724210715856564 -0.24452858232337540412 0.32035170382131833433 0.20886585583498501473 0.24617792256991077871 -0.12171097518262401216 -0.23620139006672807858 -0.018676780294790806813 -0.081839811388957420246 0.50853153010080109908 0.36538307947288189981 0.89376961591521908446 -0.83655184133940740931 0.64183475381646515334 -0.17099773856314490206 -0.21447555264959727861 -0.45263250897092199843 -0.044764525612881876648 0.08266852249201001035 -0.29066797520203840888 0.57559268282966646879 0.044935478407352867636 0.40429595043695881751 0.61902697250834104459 -1.010817428935195883 0.7548584336600968614 -0.083068816175023790782 -0.22064616705341505432 -0.12593346239043526347 0.18556434786346637233 -0.054599169762344954004 -0.021614844266104018405 0.17378730902909478306 0.42516974551811775873 -0.45762399668292491617 0.83082925486649372715 0.057539332437830534306 0.55764669276661527064 -0.13954833038151717717 -0.61372008356985729982 0.49833402835215484528 -0.087067737825359092785 -0.72254066992084409193 -0.003814742538686733981;1.3707409859766990223 0.89620284899584712335 -0.011776778945706679533 -0.091880647477221161212 -0.19826387043537230248 0.81787381894326782739 -0.42477876082942550573 -1.757385199266608744 -0.80146101604327957268 0.1013584761151397895 -1.6307925745093196923 -1.237669795244473514 -0.49286789011721277021 -0.66353236163255846503 -0.63738427983244649866 -0.62163904071104736371 0.12821978848993642597 -0.50071080754950658687 -0.34022678910080100811 1.5152130799931511351 1.1464060387260068818 1.1161456030408944962 0.82683482665290697344 1.0098051386758655212 0.052879937703088637779 -0.66215755323482483607 0.74673131820234717182 -0.17657703237972910415 0.53358286827433154542 0.18281898170471108656 -0.22968025865629176918 0.53880464370671499186 0.42731703046511826383 0.1818773881238526513 0.10561869491804662391 0.071436882297147771825 0.41676294521825274497 -0.50283659823335569161 -0.68946182667607225358 0.00043075265723915151517 -0.14538679912934426852 0.45306749451869676726 0.19298676975202047612 -0.74980823084246683852 0.20834646058626171694 -0.092396053879723161195 -0.26602662957832978741 0.68025939970430704395;-0.48640827745634646062 0.016262186778808796622 1.1112865731366328159 0.1872373930579566137 -0.50958540390040729662 0.17705672861242319205 0.089081448345649641429 -0.13062962025622654183 0.6322364920474546901 -0.57738895970604042773 0.17602771756689941651 0.15716989120207455755 -0.40829636116761780507 0.27958636902653682954 0.41859356631400213011 0.26370896669309623617 -0.81282911948318758988 0.33141276329437902026 0.68995320119408076742 -1.6780639498188458791 1.3762225714373896857 0.089538872232380495308 -0.24179072900309570016 -0.13070224831816590338 0.24100327607541885411 0.39804706129866118669 -0.49631101510489161743 0.62527713087660885538 -1.2212970284468740445 0.65906666327780294434 1.1890000279508505798 -1.5415029503058590432 -0.030514931061638779497 0.32598580356576195571 0.017717821612378018004 0.2746298900182458369 -0.84974379777347897047 0.31749275801761539517 0.46557728992465119422 0.67841174404520254715 -0.32439305963177672565 0.14521241836284781712 0.37668438087882039067 -0.71455382978764769852 -0.21233095032932500223 0.13145407195756064755 0.12341526414924378074 0.013348267235721432422;-0.29710280876296463193 0.13445596147087349181 0.50581926737279803152 -0.21116504455645665472 -0.38985589649581797733 0.035120632880074831306 1.1955390602127693445 0.5230992650697882107 1.1594026564510409028 0.43109362907739007253 -0.45817888534731787686 0.038994658137132355569 0.042028859083633463012 -0.50283058514286116392 0.43818635590241111766 -0.064680007646073622851 -0.026113959827059860658 0.11306225835870400975 0.28624383259568725313 -0.78698973448633746663 -0.080544650711822401989 0.00159568827769053425 -1.1928400131778775783 -0.13381365054814864379 0.36491055418437207125 -0.13944313213746137303 -0.0417172861355764521 0.058836110783815315228 0.25969566904644220129 0.042072867991761450646 0.44993694959716995507 -0.06748205651325968335 0.14138067648853913649 0.62529693380103545941 -0.81099879406365116274 0.1433336113765012465 0.24158030104433853014 0.020096598584452729508 -0.074991235545179613098 0.40057851809899447382 -0.89884489112913168452 0.21889149808994021185 0.71167466899212206144 -0.75728445682428757735 -0.10936404220535955734 0.50926428065904094655 -1.3943419593349817287 -0.45456636299810115887;0.4749669374597520477 -0.73071200818407422428 0.25296454879228269519 -0.96964434898005902319 -0.81537182222796733555 1.2237927805758046507 -1.1189756229922886988 -0.80999474735636034506 1.592417209736869399 -1.0703461508815943493 0.096783860742213415063 0.85344643345611614915 0.37319341397514788072 0.061470738447970831031 -0.16787506577610167291 0.76299216715427897739 0.22290766634490311038 -0.29624547122899669294 0.90471689769129182146 0.32910680750713605658 -1.0824891184089437957 -0.3015355970726480983 0.043980755056591207264 0.33957113290568535779 -0.02745686223441748397 0.29197505432627640642 0.023021223680936966915 0.24713761951299489938 -0.08625080985490478358 -0.48226410397111296735 1.3910396181636235369 0.48162792470597615146 -1.2563109117223469902 -0.0098035589113919779231 -0.10119974172494596021 -0.44977849513333084674 0.021415670451141521208 -0.32299559827788087985 0.21815811773601434531 -0.76747017678296103327 -0.37294758497668584196 1.3359440990598669963 -1.4106635657161847863 0.056210040749412298888 1.2958155668920525727 -1.2555236982449147209 0.3726304643393597571 0.97718610931908034267;-0.00061248239891330095996 0.46355101134612602953 -0.38027595096576560785 0.40563488222412941164 -0.19426351885831166788 0.10730289739762938206 -0.030972696163956630472 0.33145817196834798102 -0.14760652094129184109 -0.16349003273843926154 0.29476375954708300409 -0.52803385415712500439 -0.42895847217153570963 0.33957686203733444819 0.46672041802831654156 0.37837403644736133934 -0.48335229576296490084 0.52045574040695063989 -0.47539919575903749616 0.065593420608987582088 0.19508404144823446313 0.33308101234804199375 0.33143957038767152268 0.88733871852176515738 -0.23200827629226877802 0.15551063705410403393 0.10303376223785758181 -0.9428101461002008632 -1.1450311377910196153 -0.81685792234705234538 0.61952481579190366023 0.34102805385370155156 1.5072983810507396552 -0.9208752041046119885 -0.42301729582724312273 -0.16265659323581291296 -0.049541593311885831485 0.71179705789692648832 -0.59966897384319628461 -0.32519955296320984806 -0.062145460441739359958 0.22152358289373766387 0.37799661611719698184 -0.11612078110104838424 0.29985951116482467693 0.4421247570176423114 0.22035980144529243585 -0.23767933087729922748;-0.04101925520500513539 0.30630567097855743164 -0.82106915307037398044 1.0893878291524214941 0.71577065028828146254 0.27594731933106381172 -0.30836987694088835443 -0.54974838742903642252 -0.30385488676986499579 -0.3012191575382541231 0.33841171558977145573 -0.22033665618664599606 -0.31104227027304426345 0.017100479551758796665 -0.7803547896585437682 0.31592651092558443615 -0.2657077751394490428 -0.26732822080180357327 -0.36276814828525394407 0.10733270048598912705 -0.093769843995657159441 0.073059777207865300719 -0.41031461010199560269 0.75743134114696319958 -0.13585530001985818283 0.18355617978327171125 -0.5352655174441194319 0.3136617260783060579 0.16086597668809546335 -0.051095854843922559885 -0.54474750485891709761 -0.14824989456495440976 -0.068254063052938851452 0.16027544147666600294 0.33633435962943108999 0.69513344549271705031 0.33955692776622214968 0.29594749232505784819 -0.53151691150706836808 0.072611153726625812799 0.42039119424461196539 -0.33887968778589327989 -0.60141194772332007279 -0.2930368542823544864 -0.14657273350739902229 0.3976416724887106291 0.7641247305346893226 0.1094131412221795302;0.40880102161012327189 -0.15348445986034534028 -0.09898391648702845047 -0.20610483006491281399 0.14100396811233700811 0.00059909966563466659877 -0.70463199975042356549 -0.73383603743437819666 -0.096447881569535209856 1.06601484015009218 0.28094626719264692571 -0.25578766120145707275 0.24465914685868467293 0.0033608346060927754041 0.26944091032031330935 -0.87085661812337022969 1.2739017131495706803 0.296289923335648131 -0.6353478233350818849 -0.34586046408834114629 -0.53789514512314018368 0.50979924622109695775 0.48424900288035443996 0.23622876924261307363 0.021823529671934772944 0.10281280002659669293 0.28633510513745208392 -1.3457052510014833047 1.0359099206448043606 -0.50299571855589442215 0.50716275515599729129 1.0709076792841776271 0.42241897087076407669 -0.79660950693190757388 -0.0034187013710315974913 0.42422913750849022829 -0.76440867998578476694 -0.63948333349836938844 0.085347736272730373441 -0.012746437359816094673 -0.0038914859462748502272 0.56348155115486042721 0.30017914574823534313 -0.25719036075817669484 0.087535365116586466572 0.028308467374452424281 -0.44279953105802871693 -0.11371293481013136639;0.23852272064147081454 -0.13721466453935937668 -0.26475778086802492783 -0.072157547716752534761 -0.38507168992705825827 -1.071172843682775655 0.49979985070322252572 0.53597162215309157585 0.023386316063296917062 0.070493703131809609674 -0.77191877035993639034 -0.7964321513205467884 -0.23172585323336217233 0.15707358686419803373 0.030891062944214672109 0.27214319791861396602 -1.0228511929010122294 0.42292487874030593176 -0.33742113986224303579 -0.25313862161413797081 -0.57936344138832429618 -0.91084682616725354265 0.58783921079923517894 -0.50872037689102889146 0.10639986215215879728 0.082833867940780625538 0.021750821466793541364 1.019676492354560704 -0.015969889743574487706 0.73619810436395938247 0.45794200459717337992 0.71679526839033158581 1.1419128007979100214 -0.35436631805748236568 0.79051805850219269978 1.3163952735076449585 -0.3774183497298158052 -0.063071628511959021424 -0.36238755007106532302 0.2027225020185485227 -0.019303869665394116084 -0.60476682425473093918 -0.39984330475413221162 0.46452304597316801393 -0.33715232425248209402 0.0011747807248193270057 0.10992391810776978855 0.11092758288687973312;-0.31376081903224339875 0.66963784130540837669 0.13070496801904890605 -0.47499203433710140976 -0.096514725349055141557 -0.32344135579049665408 -0.2264030816979377414 -1.1152347996796512231 1.5179390422963519036 -1.3817435159360895724 -0.27333307493101771657 2.4270407008550418659 -0.17447562192615798105 -0.53693929876236146104 -0.20925478629433741373 1.0127740811202115001 0.8705403381716960709 -1.0982293273810157519 0.677194383965454616 1.2393397649317494658 -1.1020368941327913781 0.17214707876074392123 -1.3394881464803622961 0.12229611961082081928 0.44453264106889400775 -0.30160434633422728012 0.69781838106394455945 0.35155830344073257798 0.39325317977113655177 -0.44285484262554131174 0.0074722770116015932093 0.15672577376694413198 -1.1124046394869242516 0.82978810224797949768 -0.12893689376782579981 0.64453909355553695715 -0.82489556372357464298 0.4117140555251367906 0.34936749959385182684 -0.18007569077663734824 -0.051456979598723757985 -0.40503945904722121751 0.2343028615749097876 -0.66827972542376423704 1.034996232186233156 -0.84643751676968859154 -0.78189872707524532558 1.0334505261808339949;-0.66416031573506562058 -0.94259420320077924593 0.65744594045568449658 -0.11514534671974431534 -0.074157757340053462314 -0.014448096271918550726 -0.47544089623637281194 -0.21784013090966261594 -0.51226796237083005447 0.62778705449146454676 0.22698382727375551737 0.36798879854770388809 0.16054894853241608033 0.11185262543472219987 0.35115449803673304263 0.35087159823891983512 -0.18703480163522068214 -0.051008757112959997315 0.1814709564402756381 -0.10711165633568547895 0.80313238028394895451 -0.010416816997584475712 -0.073496860437281388845 0.065325189513203318903 -0.15846495150859893353 0.48169167370576926324 -0.59888102900707651521 0.065242338211480510601 -0.015961503892784868752 -0.46100232807285773662 -0.5331753140677415459 -0.45351147470176245147 -0.3529299601246726481 -0.11526278981120342826 -0.12969184135445949169 -0.36779658700219014511 0.089641490789164918196 -0.72597587215778869307 -0.24334006633365162786 0.3303707310341773562 1.0759223646708078181 1.0539793530851702119 0.14625513046583263344 0.57821323182146633357 0.41952169912163522758 0.19824299857089472399 -0.5622071009872782188 -0.15904582773586314892;0.063677485084945278926 -0.26026301269090013069 0.60288141693442887092 0.45850766980841095588 -0.32992251289168955664 0.080538194364552853632 0.45451327682453751544 0.2506302717807482594 0.23949430020787365603 0.13844556249457801167 -0.46803019058605427327 -0.38877604055776576741 -0.45281601082530997804 0.023877626975690548206 0.29129029352703639244 -0.62735439092933342753 -0.015844190787822599875 0.2155841035899397351 -0.38428045050296244511 0.39633537290085968374 -0.9105641241091873006 -0.32136314603530707901 0.27983691845772062923 0.25228568316466282173 -0.24525295026741172899 0.1620570016931237034 0.37226643481385268686 -0.65056581901059828965 -0.10687976853653545495 0.68696060067759334711 -0.40095151276282520181 0.021362545898865326066 -0.72047494018708857499 -0.53284311191433797461 -0.042794789508544886503 0.14679575340594680499 0.14541717874359813556 0.26114190992727720486 0.17066730845017624718 0.78770035624254708395 -0.4451503626250440937 -0.004078300258157122396 1.4748841293978047773 0.43405890240782513123 0.15490926226503765051 0.34108881612936559069 -0.35435970622200840818 0.28353882789868356529;-0.39742795950828335716 -0.40886601361204089056 0.68270329402300944377 -0.085262086383810123391 0.077269701441873783754 0.92361889699053179026 -0.054993294030038566977 1.0063695691192562354 0.27376695285994268048 -0.099596613886232046586 0.81014189172606876355 -0.70095119752741941177 0.35505744904733205214 -0.41045519961310727997 -0.21329014668358187157 -0.40070339702820856331 -0.5377206781880038422 -0.41176555706562928405 -0.89073428900908024897 -0.67037129892252622643 0.21301544482682366333 0.2993371009763293733 -0.024641291539390795112 -0.16027863353221463716 0.2732949539877886358 -0.64208043280321625002 0.051100902309586547501 -0.22208436318568922085 -0.052345856312420016576 -0.85215354216010141819 -0.029580680280346119404 -0.1193005566484015012 -0.11456528990959016778 -0.28001624958045961966 -0.11794754322359930765 -0.38733770915235582466 0.67130519924832388057 -0.49326398543756122539 0.23085948771006561953 -0.33469091617624019408 1.4904603276868815254 -0.32427242160867297827 -0.1918987921465971358 1.1978087098092313756 -0.19960636033284614999 0.26386843309244273348 0.11936678021789666471 -0.61082145777252971897;-1.1082941622396871306 0.78763321600678815049 1.3700912122897224155 -0.81677802116874109739 0.37701437389404540701 0.38147035028224091091 -0.43970812475584825085 0.21508386565873249818 -0.13757704726500544212 -0.21070600265541644669 0.28635311153314935151 0.14046480034539104986 -0.13158515698034514707 0.11875252401145539038 -0.3436713288241208808 1.6402159112638583505 -2.5042908034008219964 -0.025974857614103893239 0.99893621020016909462 -0.79230350353991463308 -0.49270142999679022999 0.022504198367526213886 0.31160222967174161512 -0.2762378210722390981 0.5306582724104025317 -0.13742084710928983982 -1.5917147359366248249 1.6549233919964203565 -1.90530159390460474 -0.63490071309271156608 0.76343267937784031751 -0.33170146216631729574 -0.21044596157205455733 -0.31894722300829686512 0.2525407942513522852 0.26138115071838635695 -0.93173381092769680389 1.278145206205181017 0.51560308458289205724 -0.52564096271361415713 1.2280712832684601565 0.083738601910533894124 -0.58536324032221620506 -0.1473381803871486595 0.11538178200945692353 -0.29441082299654591781 0.38934615620803192382 0.11849946455358927044;0.50747386123218563014 -0.51120203566974986575 0.17887971328805796212 -0.91874755308294620004 0.64378210621170117722 -0.10723443463209099413 -0.031120955809644388484 0.39734266136243046041 -0.0054408215138950812018 0.56778264862347105346 -0.24060105310296855952 0.12806120949431065714 0.12308642394005261944 -0.49348049669809462836 -0.14604605153959709929 -0.76299570234607316799 -0.8838323165669351722 0.92576190459552842871 -2.0820254372292055223 -0.20034288250670650999 1.7630382150576580091 0.34889244357256909979 -0.40275905411895168706 -0.16882162723394950055 0.82850158023196962542 -0.28227796171820296323 -0.33287498178088176237 -0.42650049835852399394 -0.58587937234846421131 0.60565435039414095009 -1.524095179220312346 0.61878725844026583047 1.5066659241105904155 0.59124695837408713928 0.1630808268023118679 -0.10421715922435520474 0.75859727405258359223 -0.2613521602043414882 -0.68362141133077591881 -0.89112404788326882166 1.1124979630427997979 -0.20934899267037906934 0.082501586607479637792 0.20802761985251522203 0.30158369725816103202 -0.059923771108225630522 -0.6063074851191936343 -0.047712499050772828879;-0.19303325620025935105 0.84948977325896990465 -0.54077221914649198364 -0.044229217268728436563 -0.45537742282865711907 0.12457852784744648245 -0.32684843823396075857 0.29432107122134731902 -0.39119578209645650135 -0.082989212634757350551 0.072194815005664603191 -0.27722126772494998237 0.40920819929023510841 0.37485363846106778407 -0.26640880742671196879 0.26986366774312736672 0.20299134896748963208 0.047749782153174373522 0.18748554956064314436 -0.27858663075474510151 0.919617089174095792 0.40839842447472357589 0.050108336988260386569 -1.2708418650356845259 -0.16876741870611133844 0.080889021757127310686 -0.31937342482389019516 -0.038909257262280588785 -0.63877925950540348499 0.082627646737299234592 -0.0038206562465129762299 0.1914456663038776596 0.38300473602740298107 0.14004454256141965485 0.35907940754842310183 -0.67668744135732328271 -0.056346793341481543616 0.069464267984598718209 0.0045354112233482206037 0.14360347018708946587 -0.11169535079026403357 -0.030413242328208536791 0.013415413152286011222 0.17249195967668551344 -0.92920391255288137256 -0.2312679500591540982 0.14813627230835629822 -0.049943696680878613137;-0.29720938487337072997 0.34086587275928997842 -0.014969859616760630705 -0.35960664724343344156 -0.25667430223532949896 -0.058893599072293287278 -0.37396189873423285599 -0.86123059972945148477 0.30372985924757628373 0.15812959051785732689 0.48050641322522719134 0.11138077920307112856 0.2425213505037660533 0.16400378064599038797 -0.45010503430099074729 -0.086912426289215805042 -0.026104247086499748898 -0.34526277820142081687 -0.94336494209700361147 -0.45769972067910619229 0.97928910855218787024 0.10382856653012585701 -0.45639905842779099343 0.28783584733400796596 0.81406389192067452054 0.090256002206739391336 0.10028978615271166852 0.076611159466061368173 -0.70392256238168571247 0.28081844023584423553 -0.46882462199661051327 -0.41341604320288483088 -0.012021947138492920099 0.91166608680751837213 0.04495377534638089756 -0.23220711612080266462 0.19485150237705492482 0.13933825097844304564 -0.59781418603087077557 -0.03220985102084108348 -0.54176191562731057516 0.38169090491901375151 -0.23058327468504821733 -0.59888799990219221403 0.21449732024090359395 -0.40093131092365147383 0.22261423280927733481 0.054653427377898383677;1.0779477624778917022 0.44051317722047311776 -1.3995059234672559967 1.383646946139309275 0.11193208446952498947 -1.8348277610973562357 0.52085251810918731241 0.84516356475099185808 -1.1435787992491162068 0.25539211250202875636 0.40602018011979523759 -1.0395213887045122725 -0.49611495707592595528 -0.29464348263173545384 1.1077531345469042723 -1.8412842472797359417 -0.48909265554000203036 2.2716568178233309538 -0.88224493432776163182 -0.78770456272921718366 1.4147862667260442393 -0.31291863466251990111 -0.33122005369602980362 0.77927312443092922045 -0.48784395450744422185 -0.44628911066599957769 0.15638106507289556424 -2.0847568279543242653 -0.58546529432966598616 3.0796828906982285368 -1.5255587668789218903 -0.020473804279541790718 1.6489017663362266486 -0.71585216316821020932 0.45253914192774713499 0.28004647964243528646 1.2861053633058194823 0.42318534215893233164 -1.6358017845666810164 0.91434506217760103119 0.30713048983582696971 -1.5655460812877617371 0.44277014579948054118 0.16482645789627034527 -0.90197726220859086865 0.16733337023452873882 0.68915511332079881779 -0.61083413526473895327;0.35133496002306807693 -0.43221820626533974385 0.21541870625978712384 -0.19379713681968399608 0.2213297010113627894 0.36745576188833617426 -0.22288205664634627712 0.161338084004537613 -0.19560510375607315092 0.26081631739559962835 -0.29313999075114571813 -0.4749988856575203533 0.25592829836971758839 0.32692143582487320774 0.32996920925415573755 -0.2288264204081899289 -0.12224114154357711148 -0.36398388132820763685 -0.053888322762493619245 -0.16433107538490487887 -0.7078367298810467334 0.66546118751002891756 -0.74695968884428065593 -2.3225295828634511253 -0.31973575966024436745 -0.22703578338153673766 -0.098446115937146944086 0.73674876018398416377 0.10965574205841967237 -0.23921773123753523049 0.67753426257922610976 -0.27707269918851040735 -0.028110795096244776958 1.0987410008652755966 0.67845532078834258627 -0.27546830794870930115 0.34904355838361550424 -0.73101176500983910955 0.15475963704683298738 -0.95021230988649341143 0.40911477391037592843 0.051952386980246539894 -0.8615284704570678187 0.63659722384271921758 1.3253705185963993163 -1.4938687253001645683 0.51607047445525722207 2.3602265963141455529;0.081408232464810548201 -0.47306043558247451442 0.23815266806313073467 -0.18116640609211340229 0.15531312415929388049 -0.35007374197329721444 0.55309151360180897061 -0.11537541235548458285 0.23186014012981268073 0.049450413637951849688 -0.6237254183498492921 -0.38077654034027430541 0.53269867042577201399 0.035898372204557882359 0.068312622760931612786 -0.48682791791184448771 -0.14806176711876373187 -0.47298596528334202471 -0.087732366511816262111 0.25813977218281836112 0.53043341455419423802 0.3148909009974605322 0.07388506997167958168 0.094770049673367898202 0.64358595719223732345 -0.18251028578259489987 -0.17091549207401132704 1.1360969706974606286 1.2068923272630986965 0.025491719473886856329 -0.88960151589798064364 -0.17193239309842536788 -0.64666774227544077114 -0.34250842326302433083 -0.20890963214977129048 0.24100422209753319391 -0.14355882826240343175 -0.3292838754109450039 0.41890643313406278336 0.59095038558595336387 0.91092609513793088016 0.023814103215972548533 0.051742908950328236894 0.44176326776488222814 0.76282984399474396131 -0.63993815293106137698 -0.4761318983812714567 0.43519436918717580021;0.23637398832623762734 -0.38670726980498087988 -0.16067728228284811065 1.0065091004891975057 -0.66671560191036016718 -0.077792699593224476362 0.21659864447378354702 -0.99814708997291690107 0.81955675444610232017 0.1735355898148871201 -0.70955102491608423865 0.988294535362037041 -0.064280508276752343355 0.38938347930709715783 -0.11881801407765794909 -1.4576980166301609643 1.5523851967516444361 -0.47431930500081964652 -0.58875613826216788294 0.8798793571595613372 -1.3110922810110861025 0.67601709036788226737 -0.69338165470662238565 0.10160545027179361532 0.032181695943572910523 -0.06688222527430288944 0.30053577605721304433 -1.2825576467307984174 2.0701108345469205751 -0.67534668304548950424 -0.2582904792310405373 0.95771790059434103171 -1.1419740059093870244 0.41505561586687705899 -0.48482977823693768071 -0.071758496638994070937 -0.6052363993820368826 0.12532256495529803253 -0.23548862012231530638 0.89420244591643893717 -1.157019687976286404 0.46820645573768920888 0.31274479244213843065 -0.53988852367922879338 0.61496887528569477155 -0.10608456074273647785 -0.90075982399844634063 1.299511739839083857;-1.105412855197603017 -0.86154079639626068854 -0.61545443551382150726 -0.74483654074305527537 -0.3855500614637792367 0.33419827677104124719 0.82607861549404282275 0.95595236323021681724 0.27968245122537022107 0.8748945102412635233 1.1797511100728808042 0.23023427301806037581 -0.21386593008952919925 0.098897105077947675134 -0.1562461254177914538 0.11241751631290063107 -0.17642889517300008873 -0.039954878893031661735 -0.90353535129058026865 -0.029269177076705572838 -0.93202141943241778588 0.081202831419873000574 0.036167063422053682964 0.10411553689997518624 -0.15776548577433410769 -0.37420644697111632437 -0.094017374763357697276 0.13675573589953193832 0.17797047242500085851 0.15832853020537726585 0.36771727544313376201 0.88228981366626246796 0.40459071466135776429 -0.087377171943710182922 -0.10007803725246515458 -0.33388696876631140942 0.097499022829033263338 0.38405470051214807281 -0.13393421562689566962 -0.19975578536372964877 -0.40870614622070283728 0.60872494960941758713 -0.63519650455271181588 -0.52416643615170843695 -0.2121395698926670792 -0.11807473410378416245 0.60383660217406853743 -0.068655155476623000443;-0.33588178798268747416 0.80625052648597572702 -0.53749442207824149609 0.40650710573931753133 0.38535316691075388595 0.17868923516049087241 -0.73884404009082804698 -0.28394359962366827466 0.29968418557116383028 0.046831022719960757605 0.33219124460670806931 -0.43655411972968860557 0.086927304513283537579 -0.4466841053606170342 -0.027984406180456146418 -0.035047582414155183106 2.1995928215250573068 -1.3325179923927610304 -0.47652581883626921044 0.059117891232746758168 0.056954622716817400463 -0.15596167123758275519 -0.7908633297409841667 0.34244211089810372428 0.11552993975897599133 -0.69220799029036339522 -0.08390200245995306505 -0.069947862499946264481 0.79525142374282153934 -0.65235749381524599233 -0.28706840667394967204 0.40368611152565142541 0.91396238825081688173 -0.41627952168884641004 -0.45192265406037723796 -0.051499752954470012778 -0.39027030158763809098 0.59804100546904126467 -0.915701589197291832 -0.06305237269866798 0.99890345076848796602 0.19160619145642979189 0.0011184244133245818328 0.26365786769626792241 0.16799627180083567812 -0.50483910951660748712 0.2192054288681216101 -0.39542662041062159872;-0.80551172685420602271 -0.52052756890289386682 0.034116810816577317067 0.37937079443609406093 0.99856481668945451524 0.64682681172093192679 -0.44887406821036202054 -0.47368831964600593976 0.16227224950519139601 0.18858927902925373687 -0.16446220758550347818 -0.46064237563638854578 0.62189743879411740757 -0.34058921030430622245 -0.59008000863986298512 0.35475491623128280194 -1.3256591990786710245 -0.34972466534605467503 0.099766124267752540056 0.073779565781101758004 0.042832224333103477432 -1.0829599783439018967 0.85008733708834860465 -0.55757299889374445367 0.23588428772003386391 0.28410504271015840638 -0.13783798933466837044 -0.16051465577629203674 -0.18350347596990065902 -0.84022680095297730407 0.0334973537509226163 -0.19696892362833987034 0.12479667683328302119 -0.90251299080162750155 0.92672389845228253513 0.17541163312043983602 0.77152310271221180571 0.048291067943943159768 -0.14562587889342981651 -0.53143655657896071709 -0.37980226744234241165 0.15374227240998891708 0.48090605407055764253 0.15744057076922304828 0.2280451178322341621 0.243587522932730699 -0.43185752655123443855 -0.30821792315867674317;1.711809761038660449 0.35252997495993543264 -1.5712244126610077632 0.8556681875407702309 0.46653007284308284364 -1.0853247454008496664 -0.22927695042948229021 0.67779164070280217835 -0.17269525118401465869 -0.80447885692985221517 -0.47837431610105574098 0.55349083414202426834 1.2213255848555653049 -0.33891661771818187843 -1.3861938759311120961 -0.184068890271312402 -0.54566460043058884199 0.7514370608583609279 -0.41485690637476652087 -0.24714506090292484575 -0.098005932240614712647 0.35107920330120501173 1.0991559468300986513 0.26022570641349002107 0.68446695480891117658 0.59178071615756600021 -1.0801114299909033711 -0.062221147340608254361 -0.086748144781852762342 0.72342851560539822575 0.50928335119528456154 -0.18059910098348935792 0.44294578199860085155 -0.43111398779914988921 -0.037853336178833414671 -0.0089665155537328906921 1.0683799174653949571 -0.58615463718995663989 -1.0804099832489080235 0.91439687284180881655 -0.57800740154987828578 -0.8851972210371875649 0.38687621059592236517 0.37407959803673296317 0.065933356582442759208 -0.39881267369945216927 -0.38726515386491194848 0.46311524527005043517;0.1799776484234884566 -0.34939361031235022237 0.25903214817654829361 -0.69185795348584988584 0.033661917181739518801 0.64185125563715017538 0.54512529353374228336 0.73107315086925916958 -0.12828159622666487905 -0.52595713733553894897 -1.5802858671318631423 0.7204022858926228956 0.005884105112994605577 0.079136752269601512433 -0.18083314512326997825 -0.28173073576341622903 0.62461470432791221796 0.034232614858964706406 -0.47287606664051456962 2.9885268597372158794 -1.9508383611280728509 0.19862136438841437869 -1.2424729314449889372 0.67376319604918666339 0.27592624456498876517 -0.29315783077511597954 0.40492646009932842244 -0.72672241182028163298 0.12019396585284677914 0.15609154752960810453 0.2051078169004270646 2.1537901931699057201 -2.0544653274911244267 0.67465717348889020499 -0.85558519227142226793 0.7584162673136028987 0.74344361103151390679 -0.65138301434613776753 -0.19655404248496069486 -0.68032853803271808868 0.23733446148151057797 0.55807817068191034604 0.72073762818744191438 1.833574392975898304 -0.41546812431304125379 -0.8253666856612010827 -1.7907917666897728015 0.56931661776046538215;-0.069794466539785215975 0.12668286479587792526 -0.33808118003538939478 0.58706821893439864457 0.4854954437586670446 -0.41731815415657419477 0.75459501199908607383 -0.018370642565686830239 -1.5540620629586814339 1.2531806212466385375 0.24874780677919283711 -0.57087641737931449359 0.31749232328557197569 -0.25423869951813460322 -0.25527183907909484217 0.35672994129309043565 0.12097124593933102077 -0.84192525133933704407 -0.61334995627704747001 0.23679252202625541979 0.54871710511523219544 1.4678358611024624469 -0.35113407948501768052 -1.0581446067445754444 0.16394676666906415896 -0.1924297782732072859 -0.3747333100059450639 0.21624223609743226104 0.079503017277070014979 -0.53475741380792152224 0.34196825045755319117 0.0020844128508441220511 0.17270298204316869572 1.1018132732716696687 -0.69898760369610568599 -1.6168409668186185524 0.15422922801106264679 1.2472619970300422576 -0.083825488057857153179 0.23064533738449669031 0.096310423197543112983 -0.28062085613912468585 1.2209721442192522645 0.10571534956124196969 -1.1073593751947887753 0.42503880717154907121 -0.052533562179219242538 -0.81140329030052738002;-0.31474020228829052703 0.35247405351325861167 -0.78508055610836713356 1.1779255074170889017 -0.57117187341338127027 -0.1664170659269032515 -0.062319733112959581345 -1.1769130489911703297 0.16104980830826304272 -0.67533889727101148459 0.55450341930367297305 -0.08484631227001494802 0.88201121722018482885 0.4949677307060101894 -0.04330684369408985962 -0.3486232166944482902 -0.30803905314437884932 -0.67897374568791202254 -0.49950630819450747566 1.1915151194469684182 0.30999861476755768974 0.050251762171473146612 -0.45515870810137049052 -0.53317190735392538947 0.66839949774619722422 0.57867501344590344114 0.35073399859127035727 -0.10436918781136005074 -0.41861610611690297512 -0.32219511853431070936 -0.090174293255957910231 0.47472246413686991495 -0.028311195927520849125 -0.24595193257991349034 0.48991163281870009349 -0.21898996242941970447 -0.62705644080347988645 -0.4414036191874177173 -1.0951658534255677147 0.54780761937295519015 -0.5705208858907823144 0.89359207710375498923 0.449747484019903776 0.093054521604766793352 -0.048354455017443238873 -0.99771964947130198365 0.98539424729312175 0.04836424784659973386;0.70628372099953184993 0.017288812920977881388 -0.18284495776675896428 0.68074648880341570578 0.56505953896583771545 -0.059169153186345198325 -0.42020877701517622693 0.0044391645038042073373 -1.1296081935727775303 -0.00019366382346658458577 -0.036997560647235035181 0.2720151315503773759 -0.50849908618644834579 0.33830002444503182168 0.1094551841108417356 0.62918763690734902383 0.033412186309867621115 1.4262076247105262006 -0.48134426642891764425 -0.96657334777935011161 -0.48344707540535114543 0.26675454093677530842 1.0006031425654531297 -0.13926460250143155029 -0.69886569358170547162 0.47169312261483858917 -0.67474792961851082218 0.97424332287655146523 -0.60694923623117502665 0.59171106854602739666 0.44411004024002703749 -0.91018078564042770306 -0.54647301994404151593 -0.027979160202820006764 0.36779163501073180997 -0.56341812250784772953 0.29335767001208840066 -0.59975518973558306079 0.072391689163326639056 -0.1607623484293223548 -0.019706528540049953607 -0.35098824994033139824 0.530921844739694615 0.38333229478512248489 0.47137690184864100562 -0.46810438132439946557 -0.25265615291517373731 -0.06136081370472204477;0.84785026891604087229 -1.400927158411012341 0.90033883955651228259 -0.22484535047383311102 -0.54586504833775084666 0.72821630338644594005 0.89752417965948405598 -0.72634189205414023682 -0.11945585133053006344 0.33446152794974776112 -0.95649582529623156102 0.60497956524526752542 0.4689853929540873656 -0.59270192511814845382 -0.074734768540498416889 -2.0206160289232681926 3.4429123572921489504 -1.5922440130405814962 -1.2511011979887158851 2.4944525461074351647 -1.1482802619701721891 0.70973628645537401027 -0.72984168129388593549 0.13453308340886813155 0.49040055963126127914 -0.23661917837056659075 -0.13439129425097601223 -1.608497067053528129 3.0437207280065923243 -1.53232506236160404 -1.0116657574638283634 2.5300353597804958738 -1.1286861656152735733 0.45837223537822441299 -0.32633006451169349615 -0.085891182078818240075 0.26322776639648964858 -1.174009916050371416 0.90932775678707822298 -0.0047943401807547655555 0.0054947250668509880697 0.20412053251300532608 0.059886580040637016342 -0.31493194345625719066 0.17184485015210512748 0.2201309986450131484 -1.3142101746463321632 0.91262167061276144864;0.25542152219074565345 0.16041562869735287444 0.29181606455475850304 0.012741664402958092009 -0.085899755360568083584 -0.24109230602496806162 -0.90473784439363957866 -0.85545983277345938323 0.68120285336253227904 0.29447238379488588356 0.15761945440126395868 0.099877341990185816711 0.81764710892386893715 -0.66726366688728477872 -0.083567240026899164418 0.37238352838774457787 0.51786466039681788853 -0.92860928746414228563 -0.12542640662597503987 0.099248962163190915242 0.34702440325928168852 0.22075259434445021478 0.073073553616016279078 0.35137535827472471395 0.1615578126474604137 -0.30729231436496817764 -0.35662401868777765523 -0.68708806964450042098 -0.10884724313966111231 -0.88314130362584486456 0.79398009876606223667 0.99650502023240283833 1.0375418585423328288 -0.17090864647519846131 -0.67852235609159106122 -0.34363952733779068449 -0.071095014039533527272 -0.22855050163901491356 0.58726708021268991811 -1.250553380895603528 -0.61635329950565997947 -0.0055445854977245068868 0.2607917599197751013 0.40981528243970488656 0.90831208327294399307 -0.12787042410208174226 -0.15947725879425081463 -0.68932424640335965282;-0.31420075147912879254 0.96946885665949755762 -0.82000972831536766972 -0.61185463229130299112 -0.15743713154195268511 0.59875070085000692277 0.052529042873073514275 0.071121111804815853596 0.29384716383378672866 -0.67928041474748279693 0.97987944858562925354 -0.032829864540649331128 -0.46545105159244098969 0.47630860473477104611 -0.074038184026294279194 3.0492543781283769633 -2.761130913757511518 -0.6137551488462165139 2.6013151493555168869 -1.8756225705835911644 -1.4905793694504692048 -1.5058014337710070585 0.79156956006393519587 0.42775653742746722052 -0.3637794769174387266 0.4747318611016069223 0.14000600017775852169 2.7201053486815482962 -2.6241291734391753998 -0.1902972779394346281 3.4746362377074873073 -1.955430696102352206 -1.9660011742939964563 -1.3905603139628976983 0.81989640381469264252 0.51693570192270743568 -0.56367488171002988473 0.85874508002194904766 -0.29232602361873477603 -0.77344301909659873839 -0.046567754006467759753 1.0178637820176328344 -0.43287075930781698796 0.1095368863858873637 0.78541489895400573573 -0.63977185259726565558 0.96540292767303181876 -0.39687041295012620568;-0.17653931767083808069 -0.23808922932613432732 -0.44780709163492565805 -0.17859261229071723975 -0.067685649443505455092 -0.25254351164315547162 0.15889837143830684574 0.27613608836891256892 -0.094708721372408807837 0.16543711535618221831 0.13593789893446364681 -0.33033795828454137755 0.77545657143479529427 0.3341851122180188316 -0.41636743817033794457 -0.080746685710387414159 -0.55581255499967885392 1.456904958288461005 -0.0089200581807712172461 -1.278268728080784955 0.94764224587616074924 0.81899520737401965143 0.63282201348270850083 -1.273683217530395817 0.65446045417208786876 0.20572484648316721745 -0.81477224140145443343 -0.21635431716551170589 -1.4472005088043429222 1.3737071727934544452 0.29804998924586084685 -1.1860003719912071141 0.37303749727732082864 0.53589432976466444547 0.23435916469860901268 -0.59254740205283296106 0.40145431382691393329 -0.21704138754361620989 -0.045460481436494094842 -0.44444999622324032895 0.6036179117380675585 -0.33369515110972797212 0.35947294759755227256 0.19407794813251061372 0.10247901845152708467 0.47160897124338629904 -0.24651256004259955446 -0.82880187853493092476;0.22390258468376675327 0.20292334582125340359 -1.0398699267482833797 -0.77411995488388507525 0.65534572156977555224 -0.044851012563810403744 0.29656866144007792974 0.54719639667262909288 -0.27626188245534838428 -0.83694657712376985259 -0.6074512344649012352 -0.30705333216592073375 -0.071729755292059535488 0.21695572439739568837 0.032564900909648010485 -1.3126582551856489367 2.1617016653610736654 -0.45465829519557565686 1.2151082428429280657 0.43761674704221092957 -0.018436828223700862245 -0.50080674610835651528 0.095603822947024436063 0.466501656517534391 0.38631250572543524013 -0.075385003120988863801 -0.10332513668388880468 0.2299773915621231013 1.3317589693476850066 -0.84500485890419840818 -0.30681996453855692186 -1.3366263672094929049 -0.67653386755948574649 0.31457701809615501443 0.17787972791781070381 0.70560481337882507979 0.05122382107871700091 -0.25764906737906473344 -0.34055722737312249526 -0.59494763341114731414 0.8044385425408550061 0.20605142535065359977 -0.11988838582160062096 -0.5901917322638612351 -0.46254133333480218493 0.94020796275580764689 0.70567501703856139184 0.044177137468246127638;0.39380976562654185225 0.087819530774133541806 -1.8926444464206912954 0.22299436325761845534 0.19023312274255288479 0.52236616019022130697 -0.81541171823683677999 -0.40260025089391104913 0.89127918978686915263 -0.65954412933107409156 -0.41442673143157182647 1.0964761303758074895 0.92754307656916645808 0.3524786443602653252 -1.0420664931096235151 -0.65505782804279777398 -0.12965506263348386407 -0.042847555802067630037 -0.041813386004201306967 0.6495503752939926212 -0.27843041021717745975 0.86156866117532848737 -0.8631522937995153022 -0.19492271516511672225 0.50806457731032195202 0.16437573573063132826 -1.3897321884556979033 -0.095082464205364328191 0.44760974573074902017 -0.50994402140307959481 0.21820711769521583534 -0.4344009502061660366 0.074346117337601089203 0.5572913775859150709 -0.87646389831919324642 0.36304621490630062386 0.50569344063775978348 -0.093441075681856930468 -1.9511179321222709149 0.16677562029994497106 0.34918354746676749656 -0.034901901672572115121 -0.72014934217708559405 -0.69102041695040761216 1.7008736457212527693 -1.0916604295910767863 -0.21935929242253002225 3.040283465002890928;-0.74597661699620443354 0.41958057076635663085 -0.52554555430771177083 -0.12232370821643447079 0.55837189747695625819 -0.12812221498908815676 0.54305859687049684581 0.16545144491072114046 -1.3087673149593408439 -0.49073151490218996917 -0.022119728332902089535 0.2031300048336085462 -0.070767793448400118095 0.025480272095923607589 0.30349568690617634292 0.090601105555348226961 0.4985766562648020761 -1.718411925862009193 0.16678864293561831977 0.66320706105569326994 -0.76441889216378544614 -0.52509960919690346071 -1.1470645480722427845 0.3832860876158611374 0.28711055780389693748 0.19785021289113072229 0.27567222268059748957 -0.6557851861236138058 0.25390919999493594128 -0.84273713121478488475 0.52912714475603750408 1.15707295583262737 0.0014067298739261721065 -0.36671127162213296158 0.13343424136011217129 0.64959274292630453385 -0.33587081694563464263 0.33504724587401985003 -0.019348547123795734742 -0.34556343387650706456 0.6697328765470296208 -0.201260246525872738 0.27981849725016499919 0.8735965406617548501 -0.15632414324502968972 -0.40791386062190282402 0.96243244841517328059 0.0654581787260912068;0.36835177431986015906 0.83395319622040187113 0.41191253062877070112 0.27029989185118380446 0.091988241507889034754 -0.12656383395162257299 0.077741649006285412637 -0.33651460643361108538 0.26166820069169482998 -0.14693012646165143353 -0.19915292124213654357 0.17745138866714876835 -0.10992585595996813563 0.0095600289937690843128 -0.33129901965817482035 -0.27140796734220784536 -0.77115240933557305247 -0.69503892761378160969 -0.094708262181652971834 0.02759079973557733434 0.6531349448945549252 0.26564649615722879528 -0.027633296738462227032 0.078878283739182680767 -0.33654357544909324629 0.16092048518662838141 -0.040883541862925878996 -0.056183711238594870319 -0.40807596907577631251 -0.11920413344140909362 0.12281472027999588981 0.024818083965722728679 0.47113658500965099885 -0.035632155184787114854 0.39026177621483515434 0.61503996707757702112 -0.35849563906400011559 0.26257657505595982661 0.099474422042092586205 0.25685946771027917679 -0.74435089761874251302 -0.62794939574726393872 -0.056585754330125956346 -0.2777059012963204454 1.2154996777306739109 0.024366246655302150476 0.0027174334957106283626 0.65081298074904569972;0.85344796884453799635 0.42033384225355557851 -1.1376115057221083404 -0.058758760967450265889 0.19145610140725438653 -0.45961953796831767072 -0.25867230885563519127 0.3859310075986319144 0.092006718728061806511 -0.50074771129034945094 0.011538303446882773595 0.28847672061810858413 1.0603295786913151666 -0.10701925393484340576 -1.2281502297747659558 -0.11612509656366738764 1.0122250423650038798 -0.58199798373280386965 -1.2244135215673705996 -0.18597763990318783023 1.0112533711389539715 0.17249588241281249568 -0.42150176687837964673 1.3115838555599965698 1.8511388143643212612 0.021066115618677390409 -1.6897780635133938798 0.76222350083398138221 0.73791055635937730095 -1.7433228060150172123 -0.11910542729545166296 -0.2869058517024017374 0.89510060204920793847 -0.16757445893643913015 -0.35929588164977188658 0.21275168170120306588 0.57721205763220351237 0.59598324163555549404 -1.0555253773436477083 0.29900220632953167232 -0.049082194653476747537 -0.70686560188632308055 0.17398113598710907013 0.0070867860649067452097 0.37082101622029561838 -0.34829193312961903572 -0.30101996810376252522 0.029855699103094254787;-0.08503080689535669201 -0.17245292073828041857 -0.82866932448960262114 -0.52011012546817192437 0.16267912464907471892 0.5706668514122061886 -0.063015054670648620871 -0.62309185285391999187 -0.015534933697560478899 0.26658520282654674105 -0.74341654504475429555 -0.40783497356567005587 0.19224775748715955404 0.82474592786285638724 0.075060430360111576875 -0.6143766215672477049 -0.45435240008357830055 0.69348267301881350022 0.050700352089771083541 -0.10009706734057184641 0.070460574533073458414 0.35055786081827794431 -0.090993641287209714452 0.14891776038155474238 0.24501147861141375772 0.090993025961608270391 0.64927562935134353062 -0.35310312959331258131 -0.12529717821360389363 0.82252135744486709612 -0.38363612253721668388 0.28515245048345028156 -0.12884175578083828517 0.082864546713820888546 0.050265378469318562626 -0.19565955998668621563 0.27105374700338552563 0.072870419707497594008 -1.4133617918321108586 -0.47353818050321833111 -0.54491461183205003316 -0.41028659953919049963 0.10802481492488139048 0.36790521671363368705 0.25054230318596160121 0.73993076743147456753 -0.40614769313089349456 -0.84036862961567482255;-0.064046659157431531928 -0.15489886215973328043 -0.64286034889700272021 -0.26094197198471946741 0.77655068776711022593 1.6554329738399362615 -0.22448720878536382317 0.58008736941373806317 0.78319299018441534965 -1.0579500785911102323 0.15715520795003595778 0.82503103045983294805 -0.38114837617026858796 -0.34231376789178002973 0.19593732089664908647 -1.1535662717688150991 0.1319989623482352159 -0.57482893639295362664 -1.1515928764738792012 -0.26357539217861525316 -0.4630778368075814666 0.27358293934320404572 -0.61569444170092135771 -0.64948097516590341804 0.3764281463403353345 -0.2925076949802720705 0.73202557952795910268 -0.51936678681395198609 -0.42573179132045380069 -0.78975634689809748323 0.89156088519386889057 0.19579962701918965373 0.19146979826009266623 1.1350587222001979892 -0.16011373948758630958 -0.22710069419122869139 -0.47329004281597247816 0.052552119389055421128 -0.68457225833166590601 0.072479387401039513383 0.80088250164676022536 1.03852886108823661 0.82071676367757706583 0.70948649090324000799 -0.17838160090221419352 -0.99692862498976808627 0.86558060059944430531 -0.40648768754493980193;0.076736030866431978459 0.13064053690148910714 0.23958034689491258806 -0.22283578500282913426 -0.22590247035970589806 -0.27319794778826506088 0.53959915385598666848 -0.52604215380389840462 0.34522483896000805137 3.1289396105005704563 -1.5494182531308857698 -1.9931274931415350338 0.39431809252194416349 0.0993863009844154488 -0.07580188996173420346 0.53102069388717054732 0.22627291619979025827 -0.21452681354294883542 -0.562350528415547668 0.016711469197888774441 0.27069856200450526096 0.15660286014650318109 -0.68730064151372516346 0.887173869396045367 0.10243053470663422699 0.045145616840060895369 0.079122779380832217178 0.07073399913532742167 0.10240636993058192805 0.024899234288578542262 -0.87118417913518753082 0.76419587274129863186 0.030330157703802783364 -0.1431731704346421441 -0.092783543254277539569 0.24289322403276150664 -0.38789404439135594105 -0.22954040794633315259 -0.13932303334650292248 -0.48151028583115512705 -0.042373323539960941475 0.32459982780804985669 0.20475560971635406449 0.066748586763119940879 0.021278199303054461111 2.2128053295936185307 -0.79647798450767703926 -1.8650691164354904483;0.75250165642893274143 -0.69790210985781997444 -0.026480833058949972136 0.45802200195965603324 -0.26338955019213811104 -0.40104449513035167474 0.092973019757770211657 -0.17071973458650641087 0.22368589542237443668 -0.53126054926679622259 0.40403770304477831798 -0.46153864455272164413 -0.69040624261859584454 0.28512145407616878989 0.45383455826845059411 -0.39876344487101123004 0.20423298828083399914 0.43862699339126953735 0.10413049080125237611 -0.38875894405265681852 -0.79072560737917674256 -0.61443311773610087556 0.9300140383634143415 -0.32498973679006559756 -0.63825632928930187138 -0.46136088837209565661 -0.30656075649603375943 -0.25166104574828596085 0.58554128389546966638 1.2994638639810092151 0.58439116304210214636 -0.38385823043881517336 0.14912511037970618832 -0.37820016862115313216 0.54459604597752064858 0.2845308741462007629 0.75175075919957212722 -0.58458425913508771377 -0.28909842050922646139 0.93293981888148613812 -0.45181616333382873529 -0.61407343586365659149 0.50325719528353540788 -0.091986873080432185468 -0.62037087058054185551 -0.26215448894145737535 0.25974392668446549814 0.42472251803664978764;-0.18040522816000889583 0.28115959282982183609 -0.33245740226350273261 0.60545235767209493183 0.078843385085729550399 0.14671764924439198441 -0.5559588871624983053 -0.16878541326890050822 0.11326514108741748965 -0.4326809861202997598 0.56590876760887653951 -0.78047010431112506801 0.016932117248674879301 0.62252409296458910415 -0.38383075400140187483 1.0115980307498277924 0.038715002311201840435 -0.68542282446391067374 -1.4444366754354205362 1.4060976710212989005 1.0894056842736659085 -0.54730875924160782287 0.20731913408961283318 -0.19087796931045233895 -0.47687942010023209871 0.41543212288038394719 -0.035430047677119394511 0.41304387635081618591 -0.35213264551814715819 -0.18103898084186689776 -1.54284465214986799 0.54219684367016440785 0.96319832474714561776 0.43767882946456604376 0.38832495841574976581 0.75063935230685729927 -0.053353649273169288791 0.93947029812533222604 0.31243843159479700589 0.41783440370281610399 -0.76870566953008889755 -1.1417721036869368234 -0.62798862787631359872 0.1388068450893572281 0.30452756816118931038 0.770420615172793255 0.55831373263524020079 -0.7750991531669930712;-0.13578635836456406927 0.19091786846598299277 0.62613047229582785569 0.78748819379632484239 0.23106611089730672015 -0.31423794338831412265 0.33272030338085334389 -0.32481697759455063768 -0.55888097727350272148 0.70541710052804884601 -0.002862105425465969518 -0.48668124981758287273 0.067070409939300482116 -0.021052522603138178886 -0.54117010280920474496 0.56150581208673699951 -0.4833003901990886586 -0.63230288473362394885 -0.83434746974442763889 -0.53688840402178639177 -0.20044470885248699688 0.51453318883418730501 1.2379121309607952206 0.31356418132500119 0.05319728564635962248 -0.43179962776345037767 0.12172524884890056907 0.23075640995813057055 0.18562348117951807391 0.50831466626914101337 -0.56540938208367741424 0.47507275721919567379 0.22994520321974445953 0.12111931371631576293 0.39987560235786129281 -0.33711369425476100936 -0.46621621717936739815 -0.18546726772412089335 0.64602600886307459671 -0.17772743296896589826 -0.66174350057262065761 -0.49951207030379241036 0.54604383885079466054 1.0978590202177109791 0.36927457951911946132 -0.22012595616356081529 -0.79670220319292717193 -1.0256776393304112283;0.4212484842081761216 -0.1859506322690185065 -0.18984740868584615292 0.25564782400116636829 0.46376477292349044257 -1.0866559189789830597 -0.86610508233198990613 0.15565189741632720621 -0.43985634690026920168 0.37049159601131309572 1.035308221609873236 0.16790494372910289012 -0.17144854413100979462 0.3419684104819974424 -0.75363791626666176704 0.078236743107656908647 -0.12000839309007914346 0.057228012561390366464 -0.17157439705620675108 0.051863907230746943144 1.1884602743511718526 -0.54133964479123475311 -0.052117231732087168639 0.40362921563663128888 0.23018286627372713804 0.36734308389586117771 -0.39886169766544243842 -0.052198376553937955724 -0.0091608033067175596853 -0.66139159110137624165 -0.19851929325144301863 0.061724193019422238238 1.0328408683280210223 -0.20912586524828447043 0.42977609563253099667 0.46235963797302542799 0.41023865880555288044 -0.70710546721368816581 -0.57365785164375382443 0.3354653376110416918 1.081242329620050846 -0.65546735728171046098 -0.30861528066656723768 -0.4025006117339420264 -0.96193072361349762911 0.458862282369022767 0.0030511931265881533752 -0.75142335214119926334;-0.78472278137292583722 0.59169448576097971593 -0.6017024005409459253 -0.0031830597454992897062 0.81399134230767111742 -0.73111633517854368591 0.9268526589459343823 1.0065796985553889797 -1.4962888802256826271 0.67925406647497998947 -0.31144848947994746569 -0.3060694554538445078 -0.059163766132120786112 0.22963734185055617587 -0.43142568385299862044 -0.039017240190248603238 -0.14133623465554712162 -0.81794858413734472524 0.30176172798394779173 0.39403408333007600151 -1.2926633320261113891 0.16239056805701695962 -0.30424317279742735254 0.45884847825677249622 0.20126590378300920903 0.39200951131791472726 0.0065028447176886227526 0.21757609491837887061 0.12556134942304728042 0.10180379234475148142 0.37382508772597233815 0.5497134814224927668 -0.57354639508266447301 0.17342010046071043572 -0.64233163772933188351 0.67954422403606651315 -0.15652254167257256823 0.96214400663174370898 -0.53070968206842139558 -0.19109643668212134004 0.51264256535066921039 -1.413820012019691541 0.10051795891761416968 0.59659276064704835907 -0.26310647179654422789 -0.22724397043765709459 -0.39751326815845328122 -0.49808234042307980571;-0.33341064894106930971 0.62825771457162615796 -0.1344789119068321992 -0.41203929058680305308 0.2462870720050871487 -0.42111805731393558982 0.60901843635459806947 -0.47195308738963442918 0.61610048536329020674 -0.2603384904508810882 -0.4374717221856944116 0.15181032368434974056 -0.029479048692965130474 0.17455932933738921298 -0.3424217306263369065 -0.0074033487534675840314 0.27746500168506871287 0.48064763110326591544 0.90776343265916326075 0.12233383539969702736 0.65430584037372496731 1.4313994270949352838 0.33565956331006724378 -0.82176228126302952592 -0.27433141186863091443 0.2730769543768220009 -0.6575927260950819031 -0.39686137464155146759 0.46834158562847771901 -0.11632719937005528421 0.59069475312355790297 -0.57702631237215307181 0.11111842845269584434 0.70710329478735645115 -0.57965695833463959374 -1.3893654768522525345 -0.0064953023100232428616 0.43103283637322625799 0.072690610801494540127 -0.87642842805002385553 0.071042317070290739167 -0.57722146223451620273 0.035667879837415900068 -0.46613630990465532156 0.4102244215947029593 0.2324074676762614422 -0.26777720898920936987 0.053053268305030133745;0.34760861353811861596 -0.56554854200351312166 0.3262291579317782575 -0.38042599457340237068 0.84792366944354469194 -0.37280042413412811664 0.39270118970348932841 0.041075550857452902687 -0.78297338168155539151 -0.70196535683159400065 -0.60635767815034302686 1.5038326637225418736 -0.16394723896905746829 -0.40091571081644727936 0.55625619975882500956 -0.38428073766970333169 1.5307426142342068776 -1.3431423693990085511 0.25157984900980795429 1.4829028329172582179 -1.6799787910694332638 1.0146183021880545994 -0.63614980417011157687 -0.4509012585546232077 0.072936571337456429509 -0.22783116232940608947 0.2412050275289000234 -0.94202687571225007801 1.6430571090257166667 -1.2480095555884782588 0.34179712570265230465 2.2281770121429986808 -2.060934113266810197 0.67562232351458417767 -0.43515436485654940268 -0.61986328859186134999 0.14823229477281366084 -0.3129009862841071743 -0.11441830278003135846 -0.88007581145375546328 0.85660141186563276694 -0.12646442050820744241 0.4260421732842574194 0.30825160630906145443 -1.1058058814995355146 -0.65485111697846132284 -0.29331644067392759201 1.215354984001674632;-0.26845333720149316958 -0.68812660011244319858 0.80192809484377758356 -0.19629464375715269253 0.98935574257078029436 0.015851883063982104977 -0.088848607687886868578 -0.04570612030551301358 -0.47638508251956290795 -0.20602314846183644725 0.81162281668558033942 -0.6864968563271722779 0.10261272822809158756 -0.36852766547420451326 0.67946682993570506337 0.24533327484571984534 0.016998072898557495258 -0.54723745672672063911 -0.2734496229411456647 0.79015468779560427137 -0.12603755060866958515 0.055925461069813837967 0.6889215644400359384 -0.77347425310773043616 0.077058592673258013983 -0.26152332121172267021 0.32089023230233071349 1.3844617356178470224 -0.39059415985147621919 -0.42979536444678045903 -0.85939684577306152402 0.18137726257575617628 -0.36940134942124658313 -0.24866721664438248829 0.80374042881979357311 -1.1609355008261621478 -1.1000687028003457435 -0.59547649025354454366 0.55134925441537907531 -1.20034048523406911 0.26612804721099003746 0.038712038391417902261 0.54782733974295072521 0.93512482743090219461 -0.99863056630372692979 0.72205033426542974961 1.0234102559222417739 -0.62263523549436561311;-0.26690388952422750002 -0.97958735587476020168 0.48945180191498688371 -0.83680889582129114324 -0.23170666290695066114 0.21230987127407843773 0.0066370968341590893397 0.44427105524036203388 -0.042293690367778108419 -0.64246710225886405343 0.047999123909469913751 0.44233617322656054727 -0.1413446563870260908 0.032207040080866465581 0.57712964003028321969 -0.097003794887217886789 0.34463909698799810588 0.53583521550292567692 -0.61123055658514546806 0.26478924253221569618 -0.43790691968030165393 -0.54842286293467612524 0.56592970809708498248 0.22165434842381726011 -0.56625860645505976532 -0.28932500108560588181 0.043956527853105754888 -0.054080211832079790046 -0.25693150130141984011 -0.70235384211374229935 0.15102917866498796751 -0.10477608591607480426 0.16810320704385098289 -0.67676795811620615861 -0.15245851275558952587 0.1051883757728239166 -0.72085654921089281633 -0.88722772132256311206 0.22860292381763167024 -0.97240856332192138201 0.54683159843110606957 -0.49960806903967380777 0.33662207140133526551 0.23457240711848362236 -0.031025211840056157037 -0.35779268189745755402 -0.45943680490968691332 0.99195394791521640521;0.39583101008526860864 0.42451771042446428961 -0.084831228642140793506 -0.085487510210531261756 -0.23080028576837616217 0.50075879859822458595 0.25821572945405008026 0.11577661751907200594 -0.16291774997033248162 -0.29423963019344651082 0.053449118440834574029 -0.2064994383872765793 -0.44922242168404419305 0.302381605502719919 -0.13926866168253526634 -0.24086379775872843179 -0.15558231924057228102 -0.28627912053671572545 0.20553925816692358852 -0.095029519601792067363 0.9590421072836519123 0.3708727759940114721 -0.39975557005096468144 -0.5217303190496337395 0.17383557940912816586 0.72443316748884412082 0.16615995283937748384 0.2307850796743361188 -0.0087048869447220577483 0.76430077699786824752 -0.74900910725695435399 -1.0773757543239894652 0.64579572667246099016 0.17863272309350616829 -0.48713896358285774246 -0.076465832132719305236 0.17323195629287724273 0.90993458501383872594 -0.24525909073189297582 -0.58639894671740455667 0.0051818615723870130665 0.13543192665863651447 -0.25822231130310696612 -0.42583281303344849844 0.35255293322323300043 0.79257306381481529289 0.47379131744827251982 -0.32885716013411636638;0.19969699877534222154 -1.7190462353730091571 1.2871370689197738635 0.029335592480183376313 -1.0796576631723242556 0.3647670162344100464 -0.13136051302966050836 -0.1032512623990274464 -0.056049314669072126949 0.6860606703227392078 -0.36235607150331949899 0.42497725248013079602 0.90676311322975544638 -0.70380963783182504123 0.56481444764716226548 -0.94138362738507896932 1.3183895005654215904 -0.39879638151834884141 0.64816675909684529078 -0.24269964707710417473 -0.3966417422053698516 0.20563207562418767127 0.043785668489073482912 -0.82614804847644840446 0.71158648272645241839 -1.0305565476345386333 0.052883887305073387641 -1.2028074029665827283 1.5327125335307076881 -0.7501698586277463221 0.51533782875416356273 -0.014455809268979626786 0.36490496645113618124 0.64816869735428583876 -0.055486838147587903836 -0.11528698599066122821 0.65962008591307785821 -2.1283171432640033416 1.1739508764028114829 0.65877678173337661516 -1.2586291483709515227 0.53365211297491610409 -0.23330452162788686832 -0.50084487637662056247 0.552271150401169586 0.47619538669844346801 -0.5977919582201705051 0.43679464287319952343;0.42830750431388070476 -0.046712090638624768901 -0.21835709037117054243 0.31647733243828457539 0.45350895640380339824 0.16035497874295664977 0.4587456368644129423 -0.23324035192763742375 0.54910963286051406307 0.19881572144327994134 -0.11091222313147164336 -0.043013089887394280464 1.0617603206056711596 -0.6524630508432688325 0.37816680276169933883 -0.41910214026549708066 -0.45768976397596955463 -0.6668817738546687357 -0.3372965452627380567 0.75319152330748861957 -0.27710341300386270857 -0.54952585783588214774 -0.028917934699610691601 0.62987315893718975879 0.74028705949674999953 -0.35465887386116951019 0.32259910235094257924 0.72981399092813170615 -0.6021440320591030515 0.33439514772434769663 -0.62095781373692549021 0.10853114874245209376 -0.35486776037461886801 -0.52085791698892636159 -0.2632264513336751155 0.26895291394077225355 0.00036242016002483237735 0.049451294934975430218 -0.37135167969519250475 0.65378117009843828011 0.46089053361316906221 0.97604261574514827871 0.63596503560927708509 -0.32054691205821239652 -0.18135808443742776341 -0.17125508996668903361 -0.4380213388352658388 -0.11163123417976483776;-0.45788929535762035172 -0.22254566975791650885 0.33733884572128042256 0.10176821310949694943 0.91808362604537607776 0.2729480819324084373 0.043380874782273204371 0.31895740720618576125 -0.22298969245244237847 -0.0057368426484730042705 0.22807150116949306828 0.19211531894064862169 1.06263776575871427 0.10170308173307360255 -0.37784496157109265235 -1.9202901189400447546 0.047566005438362528313 -0.18801734753438084646 0.77992022417188811012 1.4975696875443624823 0.67915218978977220932 -1.18719479828576846 -0.25292180896351229569 -0.586626621290944672 1.6537113639006872923 0.13172257682132454404 -0.54198595464086640749 -2.0190711936110807834 -0.26587605070524511497 0.38583926039661564644 1.1694334334984279877 1.3984508645157811557 0.34379752373245547892 -0.46290097076884106908 -0.75727701541459013779 -0.99193689774721749419 -0.47935639200313795438 -0.68328692073738828139 0.23219502579968870348 -0.77372241678232067663 0.17953963770708708525 0.30772968443056730736 0.63929612087518716823 0.70008909087466830723 0.55361457019517112954 0.17712892301659591276 -0.62042303702069701021 -0.036711526253792911567;0.2407535481880950512 -0.15021369866602796161 -1.1126785912453012184 0.65981206110591616998 0.047549308053950141428 -0.92420640020457989205 0.20971495686703131578 -0.0075361347306083107181 0.22783837950596241839 -0.1975022571348183098 0.50517082748070929465 0.6441928954494149373 0.88550620307277083665 1.0690250387346620364 0.60873599706948067212 1.727655706093304655 0.55516462731309956791 -0.99702595864937615389 0.15011596713811981019 -0.24549891658896172419 -1.1417742849497825031 -0.091648505323196960415 -0.13790657664821676098 -0.25000328690960094136 -0.70641821933435355874 -1.194061234037910646 -1.1323620090466517407 -1.2686058891461167164 -0.73294054983644485457 0.57770012298540607265 0.52209017414165714843 0.45596708417567782812 0.33191338285087268467 0.35818241436490250162 0.50120262337718091139 -0.72338761926690120507 0.71200213482766561146 0.35430960288499424582 1.009672708549438358 -2.2415835607518856953 0.72722838073340545506 1.7730801032969332187 -0.65872133449664393989 0.064347813630557096354 0.40180428360907549656 -0.70054763508220940782 -0.088012788190687224477 -0.48320184539546973124;0.33093191326154319798 -0.62581565068213540481 1.5427341970470016541 -0.32187318820220189863 -0.66468499525225244184 0.53434565978154424659 0.32558456270075702976 -0.97941744871492386615 -0.39701455395960499883 0.35716204322830447104 0.25750876875714090453 0.29091053288676249622 -0.15655738123433027287 -1.0260664675197026519 0.81919083429684436126 -0.08453847611543124918 0.90510851164096350896 -0.49101262747246815499 0.14269203587328294081 1.0782689482425573679 -0.39259642149508888753 0.23843166535277968143 -0.020311329013149713452 -0.37451641777626598628 0.27729758445953073265 -1.0838510318772200947 0.6997816032788617413 -0.85895036418432146874 0.62140570030730490902 0.072263462520118670884 -0.20358027416177038038 0.36107385645997125412 -0.21086177264124958408 -0.39165475029104179772 0.030981525331758533182 -0.2983579772204543179 0.78587655859036431583 0.20348356284637877933 1.2001218632642765005 0.080287179085832161007 -0.42472924597708971994 0.60974242514718179908 -0.39627942069042915163 -0.79912274771154834241 0.49173654593032417592 0.072587541319642859272 0.01704200410668598939 0.020632791654340117832;0.93749558420024847738 1.0006584267142695222 -1.1373897219255695301 0.36425578121370361107 0.44662929019217095794 0.37831188159713674546 0.15470025559455566344 -0.071087789719780372644 -0.089163600342207022242 -1.1017362136198869393 -0.11132514860979300653 0.27619603211806631471 0.81086113470454257435 0.52906230338740922736 -0.69388473250474969056 -0.85472760989751939142 1.0174014738475793962 -0.21068783510293553896 0.14142142634247228949 -1.3752440991290360017 -0.061801410650113165757 -0.14601730132973023135 -0.12086131328050883638 1.2193911927023199926 0.26182403747078281109 0.33826431305892457058 -1.0758801964212711955 -0.32792414970913030814 0.94535901714310677235 -0.93169029548394199924 0.53698495554191905121 -0.48850789237490477301 1.0460889299271929342 -0.2065494244864189699 -0.65218855555246790789 0.82250971587036192378 0.30272807365039755556 0.20179837505472922321 -0.16970362776845751562 0.091697858005552926319 0.21451373201717680028 -0.68810193187776835799 -0.48249085598587776458 0.14829780929259839262 -0.45715149588552528304 -1.8149394921127492974 -0.59840022407067983146 0.87376831250724151801;0.10999863907513753036 -0.89583299737205290825 0.04203530314625752301 -0.15911424584412126038 0.08590423517928555408 0.21861903015017916663 0.60880366236518146383 0.51598936530800332267 0.56428845253882042865 -0.041612840436672529632 0.24088886282045651743 -0.41072310715378490542 0.16722615241506272321 -0.38043172336932185029 -0.16033881602569796665 -1.1492332106821228077 1.2265103590342152362 -0.0029136342513909380299 0.54417306845088420086 0.040004405828387538946 0.95646005433294800646 -0.24012390701239574864 0.84496458980118227533 -1.0275804430013404378 -0.32766020965995917846 -0.76986433002492571376 -0.20196522015442641695 -1.1583353730605463472 0.76039467067798860445 0.24289454021925560578 0.04937527825400494369 -0.42339910227411797772 0.45117976304489637585 0.13523324514016862863 0.30425334328378705884 -0.14358421269899657169 -0.22173856008502576542 -1.5907479444442633731 -0.97285328434129936248 0.94253083644760216053 0.48606569243671415848 0.6261467830366902465 0.79347618251114881982 0.021946727704677836124 -0.092366270850809589765 -0.033433627942999068205 0.54715212865527840247 -0.38928066795728638594;0.57230494954047772538 -0.80905718365508683121 -0.28287075174678821821 0.29805663306797430812 0.79214444958714247402 -0.675336229272676003 -0.082641160764566734542 0.99264415361298119489 -0.077133868533291807812 -0.56565962670251146438 0.27918217497860453591 0.98759036065416561101 0.16269552371874418384 -0.077189430313720025501 0.24756814528917045481 -0.42163570996368288091 -0.2308734634884830883 -0.5711677193659042695 -0.15466797799750262032 -0.071917645860938989033 -0.57180663818856958258 -0.34630761075700705609 -0.4388961386670935938 -0.72437589788920631051 -0.29301695995920545856 -0.16818157171638617453 0.31274523028483347531 0.035401314689293070237 0.3494888942969568979 1.179988549060357883 -0.012195347833735197679 0.34677951018654817883 1.2757083519830609841 0.15323602718675510825 0.95178093016729825582 1.2024901027366714512 0.20411785499970439006 -0.13026781696078160167 0.41407570693783657401 -0.24429329907886032647 -0.099394085304632368016 -0.22496288565088085054 0.11310176509317183824 -0.73013253857522841805 -1.279341574937203907 -0.45185319266902546076 -0.72897086650140052733 0.03695833096290602332;0.38258365726656251571 -0.66855691990825572013 0.02525880760856469287 0.68653509978175897288 0.65703669554736865432 -0.17278879813051331582 0.0085569493065997259684 1.2527360610577884525 0.19493560481584554234 0.63845178129823032531 -0.50082068580183303208 -0.35658174954685567526 -0.1461943569948083721 0.52854289928442921287 0.57630451382260527993 0.87476838799578482408 0.36092342821544548537 0.023950861538097854841 -0.65765912788140090672 0.77756443506465111604 0.18842052261753911013 0.81300705561933628296 -0.020757048851090129093 -0.609988342354300217 -1.2264609771108496705 -0.077976654320216109983 0.037475310558737220945 0.023746965613777253068 -0.32313792820651965343 -0.089476379949834733418 -0.42669474641503979395 0.14667775689700385255 -0.21831856775710417606 0.44448167001699445677 -0.43642363063328598605 -0.47800548510915025213 -0.39718549611523856768 -0.24721835433424677042 0.70487796884330689018 -1.184193180230759701 0.067434323616725952433 -0.40020232343307560186 -0.38584173694742907035 0.41653953251036834882 -0.47384746719865927789 -0.055584722144507478503 -0.20678688620151380873 -0.15202574354144474111;0.096251321363471351034 0.7579642594862894267 0.38395508098645869666 -0.6710785721627395839 -0.21200003370396228175 -0.19928817613056148961 -0.29690307533621346225 0.059461805477050218294 0.070924823545431420202 -0.42671057368633535933 -0.46002756685630780131 0.72441264421966389264 -0.38323776850080931711 -0.86153071259256075454 -0.93954576321771809955 0.5736895833773248965 0.6754876550598047924 0.74844403209220478068 -0.28109507532562044707 0.80907026577180052307 -0.51218900193714056446 -0.017778137268269194465 0.22214210683027291182 0.074677447140167774187 0.14523753214807569312 -0.52830137456122383544 -0.11273842846246298621 0.75898653237060631493 0.99824738886822006467 1.238287521946808134 -0.74861713498394821809 0.68842994522851264083 -0.33858423205664239797 0.036686980221988282902 0.33749444077370455153 -0.29946346489955716352 0.44857965019877477086 0.073094543732838052064 0.17931346559949265518 -0.90352030351414935883 -1.0252855824092110826 -0.81920256427515047992 1.0137815839216353098 0.11759695413777850048 -0.57856468720207521184 -0.14701524280396380262 0.055313505661106279754 -0.26822931250638826217;0.50812276750880924769 0.25247073353230981008 -0.25501038476765697238 -0.78785835819433613914 -1.4310937855618208747 -0.41377410627145694288 -0.42615511676641987249 1.48625172812470141 1.6182965492044467659 -0.286899945663944278 0.18276793983689143541 -1.1139997731647224288 0.32192406799549250218 0.41623207630392111689 -0.35553368710951704923 0.27416132254973896165 -0.55787048099294722636 -0.27117142395355703366 -1.7059077548795689161 1.9888005743511532053 0.95960168462247497079 0.48503998365741424204 0.54579028085119729585 -0.91682597180145097848 0.068654219876685518287 -0.037537319868739073281 -0.15559257902089421166 1.4825958182313248024 -0.16488431250918531012 -0.52144286699687447673 -1.7579434994988474283 0.93672988578399984938 0.51132588919348243017 0.44505196974650723662 -0.13061544183390508267 -0.78614203299640206257 -0.55071398147577255155 0.38460894058350553193 -0.56208546199986497705 0.37701404588047993105 -0.0061799818260103670658 -0.38705051960981495807 -1.2344879646311781585 0.33619140685609805175 0.59431076604565080679 0.54720777564356781753 0.35873178106749442628 -0.89733799214347753637;-0.20171846214033747891 -0.077841507079561722549 -0.41356083097055157394 -0.16830718345251574619 0.32055858902407557975 0.63263396184083087181 -1.2082700448967345075 0.061575694729098205682 0.59907947399275596201 0.18008030792898005457 -0.82696313866376158774 0.29086354041191436748 1.0198306532125793744 -0.19360427735316090847 -1.368821256390886143 -1.0620422957746389336 0.14345315310208892057 0.54071603600173667736 -1.0146995587953557827 1.1862567340200280697 0.91669862969088400373 -0.079037709954879853402 -0.62624227209318872323 -0.61175694182295636825 1.1609200526482479354 0.03943153253448238027 -0.81143133427048841355 -1.0974710288115541168 0.36633137749813210471 0.17078970665657661199 -1.9374841276141177016 0.59796623063086107308 1.0790786015073212667 0.53072262180434703893 -0.15456190779978504213 0.53023356702241419836 -0.397905556996538734 -0.93664334819966355017 -0.58456955777687724662 0.36702211988194188841 0.84132784901686574752 0.67429677618168326614 -0.95105167982108607116 -0.15345838480204665455 0.28103793703504870161 0.42891252803339502409 -0.2446917156358412726 0.20288855126319266242;0.4426372083573676397 -0.41858470363640826184 0.5348281688514361365 -0.36156590657877074602 -0.26492197299651787379 0.08082802656602179614 0.94578801193506467637 -0.19246690885306153018 0.038095281293553356905 0.028444333860883973947 -0.58549526431256138093 0.46196232197905351402 -0.40038333990803370854 -0.053889786053752386508 -0.80025584023170337478 -0.08599444466692211797 1.0925002381783948113 -0.32453774578468896905 -1.184787248086323963 0.43549863377721881319 -0.75909724702873848656 1.1145099684519454986 0.72840861669462575456 0.48465825959233210796 0.31685703675451915018 -0.15572129584814461967 -0.26216358305913661786 -0.6996413605849575168 1.1563813389292905143 -0.67122760282676052768 -0.87552440434807876635 1.0802483969156666532 -0.09607660648087924804 -0.3169832408613665331 -0.028490839605774032073 -1.2645885294077328087 0.94086165677241440086 -0.32704620293335040504 0.63472456830154155849 0.38829681058464715626 0.33017096041495497261 -0.41772947691568157458 0.21318445183618833783 -0.27585505273226235134 -0.18393564333577427927 -0.34179649632230091338 -0.6815120435110822994 0.87637500576536353503;0.62543725230328950371 0.28839258248553151232 0.24173796141074677113 -0.29128150829811094713 -0.16467898220640053708 0.28665497255775634899 0.13075812063412703412 0.2244346185548173056 0.048184924160231186463 0.12075501872411942283 0.25372925271623841814 1.0546346682937564054 0.28594081299143425667 0.020363576594332809949 0.62122350957274385941 -0.12393859618081616569 -0.32642569099354434847 -0.076204959025193960698 0.010225242086142864381 0.78127378080227161128 -1.3012199767411822826 0.33114902567919585197 -0.43724224100189262865 -0.62736931233887760495 -0.019082834486019977643 0.29352585366356737095 0.10410332368748111131 1.0138592764492313503 -0.098463053392350813331 -0.21429123489764764776 -0.79336991263349965209 0.38094671285024583884 -0.563546194111703036 0.26399426417463239813 -0.63879695356211430024 -0.5936388653767254997 0.16205302270177604496 -0.36337773936056383395 0.23767536541838596431 -0.11740571608937701298 -0.32219366842496560688 0.64718281318102255373 0.019283031340137878756 0.44322469300158501282 0.58501468830085301409 0.37517104809171969437 -0.13664495659750144907 -0.32057449295431822422;0.66064720014487021693 0.22738431656295893246 -0.41122986620673218638 -0.052112431660231842145 -0.37817042765493069645 -0.301808934968813114 -0.1755585644601897477 -0.51565388253479160774 -0.76857548597344349517 -0.4782600294211948877 -0.18126817653132581976 0.17621003248506666994 -0.51745904273560061615 -0.044337676933178492289 0.17459085838029847482 0.85426427015179773328 1.1657944041682659631 2.1165860593231706765 -0.092951495664025954313 0.88826506906514202111 1.3905181572452078864 -0.18098636655176034149 1.0884812509956065529 0.90082813282185880688 0.073267186753239094132 -0.15075649064131158017 -0.32980928956155203258 -1.5614290861873110217 -1.3274310949898586731 -0.97371049827955968858 -0.11684203936448431249 -0.83599828127537911815 -0.91806008058986932063 0.080686383979852532855 -0.41504725436196027166 -0.73096990029708031056 0.14543859873538644845 -0.28082128659317479036 -0.28124843792212778082 0.061388459758842300884 0.6993627058543292474 0.16024302679561225338 0.52450272033565215057 0.5560324989191315348 0.27929250977335562389 0.30362908658776410764 -0.082645674873403601746 -0.15027642998925394568;-0.085455275669605756939 -0.53924307995577003272 -0.036416986782091688435 -0.04311646438492157396 -0.23869974172947497348 0.21507871832144184743 0.45096080625470619241 0.45586636775145522593 0.71844099059709876087 0.59143155135837166547 0.58176994818634186757 0.18758024473092974049 0.10080578695098971198 -0.11768509954954833874 -0.2019674538519115603 0.12320160457692277967 0.57060953002098602216 -0.16467932851160108076 -0.15017039721953562292 -0.15857901604517044003 0.17755378666559326617 0.27417217893233664094 0.075785602427621223676 0.59182674383502942295 0.15018485522010868727 0.11594773250698828249 -0.23881887228183928951 -0.17679532701905067982 0.55762114975601451139 -0.24381072580691381946 -0.29495452812134581588 -0.31550304829815040142 0.44655928511717896123 -0.22054460276639206717 0.21647178417633647363 -0.12560698463687450244 0.17970653971034955543 0.25336746747309535355 0.40211294335722080895 -0.349048810235228546 -0.15518418349644175214 0.23455408959460222196 -1.3167700593803473019 -0.46290545643209735083 -0.047968792715069798194 -0.59656155741979943752 -0.84977052144658660193 0.3069552952571670823;-0.23688402322959936641 -0.082378118037487166325 -0.043596826725890526488 0.34833793147397384971 0.054346132085305323689 0.01195523200558500608 -0.61309345578728313697 0.090409494793878095176 -0.0053653051094282380729 0.41452378556756358519 1.4179194815682110153 -0.60327327792339435764 0.27250324712020312923 0.016074925765094276453 0.45070228489418734386 0.9300082549475634508 -1.0154862905786115057 0.14383850956840057989 -1.3497285575469182284 -0.67627542146443286875 -0.13216470003653582599 0.039253956630716402287 1.5094919008343268274 -0.2904929004015171512 -0.24589232002082109241 -0.28460209650107881618 -0.18336840984382768438 0.48996646600505910918 -0.84353167812798446334 0.33895928188483614996 -1.3447292579196372664 -0.58687360159614254673 4.2183539437813861485e-05 0.3456709864797360976 1.3867371278117888167 0.042515484076201814911 -0.38405496098546570982 0.43990047185972652732 0.065172353134372348893 -0.084025752563591168953 0.066455033136237739999 0.19102495359443655287 -0.86824669829320300085 0.14091141396773235184 0.91467834352484855831 0.03627814391211463263 0.23573048577863878195 -0.92749272096287538325;1.0270199887861508614 -0.10610469962577827319 0.34462479907548038138 0.078596429338925494212 0.064702137372973991813 -0.95102073555503463531 -0.46900584850365567569 0.38650886938892398126 0.54473698542447024362 0.20650486921276103858 -1.1245634541417965924 -0.45616131022116035432 -0.566822359073456572 -0.77694327963280440663 0.22351990461214416017 -0.31463955335232446364 1.1262583617367905031 -1.218689189054245281 -1.1807962285014235171 0.98084190676011051568 0.10490620396448489815 1.094609298934670738 -0.14887604471294021979 0.61534990405288780835 0.056557892627420225384 -0.44641333423865608987 0.026267567170255027437 -0.62647219654111907516 0.76250206044912050007 -0.95217322499979806238 -0.75895753980330393773 0.20460842439131696202 0.49616603532238384711 1.7237065230272687888 0.0093437664259178390691 0.48944937545906536114 -0.0026685950013074035726 -0.094432911565254365471 0.56899918823976092241 -0.59685292085360142078 -0.74960714369018954795 -0.48965785231496194996 -0.61199311999371386328 0.029000290556940210712 1.0480007188659719031 0.820888350013035617 -0.25398655343662240869 -0.30000893750238522006;-0.33507278345580565615 -0.20589964664496143709 1.1296164101586938511 -0.95782703945343439234 -0.64460831131927354143 0.085674490668155023343 0.60349779953745208427 -0.25038579990225701133 -0.15381513145134542708 -0.38429256852024362701 -0.10223857238597632013 -0.85889690418526487559 -0.16356156119238376978 -0.27369019586879123063 -0.2678601410481736278 -0.47665149296519770949 -0.004154354136268788647 0.38931220404033539673 1.2409868040446638826 -0.19800977823775273157 0.14923798493714854341 0.30193366107545765997 -0.073464963104990940734 -1.1290254098101495384 0.13126587998469188556 -0.2223744166660315269 1.0717350319195162456 -0.41395370239309153826 0.56186591242333960849 0.40864531594979064399 0.75487072423950773992 -0.78738056619548069115 -0.52249533227580002848 1.2162805910974276991 1.1686149479002336804 -0.0377582387704609862 -0.035804458841714868755 -0.56127745347134105902 0.35413817157622023979 -1.5436696949510098076 -0.90609121397115066632 -0.42119113587620504724 0.73273055562560229781 0.60077969187656943273 0.16571484466855493367 0.48799187371898122834 0.44046617231745383014 -0.33787302670041580166;-0.0001804445337318730247 0.53274841022654206846 -0.99614004705510594828 0.2820523253722150292 0.11678369775219163418 -0.61241618938997000043 -0.19878774147479066903 0.34137566048683470887 -0.30100988304555459374 -0.17190578978938450549 -0.070605190277366183804 0.50715973545755155261 0.27607450213060091837 0.42212805260653007977 -0.65763911212165571119 -0.55700088495229749253 -0.94750292465778929163 0.6005306005636055211 -0.085606855164585340945 0.64902220331844018286 -0.65949802986484262757 0.22836849756740978945 -0.26745408924588975896 0.83672075173893212252 0.11875172769559437513 0.13107288527568100589 -0.83129249535795990411 -0.77457703077779371803 -0.55956701423450871946 1.7338065405598308555 -0.62209172460066042287 0.65365564863086156322 0.62112942549566851902 -0.24571562742176153438 -0.63557202459331674227 1.3286676773722763123 -0.1582452560869044289 0.1474173474554464347 -1.1893637962517853435 -0.22468055197964945102 0.49762351464839665871 -1.0066289547759035283 -0.24408643072539440433 0.52061951831810060476 0.20011551598884771974 -0.21219944739004559242 -0.25831296785687657414 0.52755213695905400773;-0.1058242438754472825 -1.3847013848861320362 -2.6920587804462470238 0.96288047775049512289 0.42053836212739320599 -0.90672267703472253508 0.13596229402486850746 0.011436287211313636569 -0.033166253643216937752 -0.54935494180805466424 -0.34279859105130494612 0.32576526131903688066 0.46825586329699347976 -0.095199941309655505828 -0.46992570405771522113 -0.10528751292595271705 -0.065003640016551331171 -0.10588537658974778166 0.36721247587808758528 -0.18058132544883287451 -0.74681481324935694577 0.43826682613575906888 -0.020689551517601861147 0.44575106380053552968 -0.57249041888718255056 -0.18416661694564795404 0.5418331264209089726 -0.96589130101497866487 0.5924814154477515693 0.25519475192147733633 0.12179799248660028166 0.050062657562203190242 0.088683948963299757962 -0.029661894144465385248 0.17698864154169940965 0.180750327476919187 -0.061035679208704562981 1.0074495366126887674 3.3197209353510546137 -0.73902453376794130513 -0.49858675421323278565 0.26195384818237166247 0.32560958647326793125 0.095752925870735097758 0.19137601821359959131 -0.55276496746212522293 -0.69766085184201176439 0.59490695271001292621;-0.025261384178127531397 -0.40768386228821196227 0.52030104802064458536 0.68563614057835287063 -0.39620121795828133759 0.091251714218238355603 1.0280904803711319317 -0.41040536007868932966 -0.41777632107747675327 0.52376104408113233202 -0.22132806212225833442 -0.25260432474953853355 0.94608136133521159028 -0.53206847063175755075 -0.31198589432268425403 -0.63945260669501191586 -0.23634905480766538188 0.36296959067104112018 -0.47856979234866148243 0.24641933483983655129 0.18002074696394715358 -0.0053230270796062618271 -0.56033846086237271145 0.65512087827402099016 0.61794906391025261616 -0.99273286076807254474 0.18732999391493737606 -0.02488583398195127333 0.20727076044838080304 0.48138610232690992596 -0.62913264240487765111 0.28827839530617882513 -0.88764872785372639363 0.28305379778022810022 -0.40262298851808597799 1.2559861317684493098 0.020158433937486303772 -0.48455687840636568753 0.40799570112924338217 0.42780289953690209259 -0.47546551800584135883 -0.031102957658474372771 1.6373165649196113058 -0.20847831817679024491 -0.49262058573099798409 0.29253948157403797392 -0.6254875396759606021 -1.305995409499605131;-0.16830606361534644622 -0.63924522975544184611 -0.89511810281566339675 1.029887095975138056 -0.20065766018251510183 -0.58344734604234183006 0.36990989676981705925 -0.37993428949254709481 0.36610604898843690513 -0.39703569297609114797 -0.29866982889221338482 0.7333317075749493652 0.88882345689436270675 0.86629005636774014665 0.78609267164035279141 1.9502237086471836403 0.59995890759982006823 -0.032736356522284688897 0.15971016064420678893 -0.39978377148197552504 -1.2905683418479205748 -0.4298898558714492335 0.26297157019844863424 0.36456116096029217433 0.088832631285977972646 0.65684946717185255238 1.305364371495939313 0.27167432669212809859 -0.93590921549402772417 -0.31979330777246461892 0.090990610443296982002 -0.22053029419058636784 -0.32691364228802716196 -0.58263320294753773165 0.21669035389297489069 0.48702700876429250165 -1.2315892257231104701 -0.49623593379969122008 -0.99404495177043150633 -0.74314979440016348811 -1.252311053007629571 -0.66069646764310208109 -0.79559634039388515969 -1.2015643423615451901 0.13724587090672701883 0.19421272625407121071 0.74242336039167322603 1.6752759029389954204;0.84216414803388972565 -0.32191298202501950065 0.3491446985977653128 0.31892910081323744276 0.15745300489280808498 0.46942374382839791025 -0.77711852342428111573 -0.52458747908332092891 0.11529766064738225517 0.31654143771051035383 